{"learner":{"attributes":{"scikit_learn":"{\"_estimator_type\": \"regressor\"}"},"feature_names":[],"feature_types":[],"gradient_booster":{"model":{"gbtree_model_param":{"num_parallel_tree":"1","num_trees":"500"},"iteration_indptr":[0,1,2,3,4,5,6,7,8,9,10,11,12,13,14,15,16,17,18,19,20,21,22,23,24,25,26,27,28,29,30,31,32,33,34,35,36,37,38,39,40,41,42,43,44,45,46,47,48,49,50,51,52,53,54,55,56,57,58,59,60,61,62,63,64,65,66,67,68,69,70,71,72,73,74,75,76,77,78,79,80,81,82,83,84,85,86,87,88,89,90,91,92,93,94,95,96,97,98,99,100,101,102,103,104,105,106,107,108,109,110,111,112,113,114,115,116,117,118,119,120,121,122,123,124,125,126,127,128,129,130,131,132,133,134,135,136,137,138,139,140,141,142,143,144,145,146,147,148,149,150,151,152,153,154,155,156,157,158,159,160,161,162,163,164,165,166,167,168,169,170,171,172,173,174,175,176,177,178,179,180,181,182,183,184,185,186,187,188,189,190,191,192,193,194,195,196,197,198,199,200,201,202,203,204,205,206,207,208,209,210,211,212,213,214,215,216,217,218,219,220,221,222,223,224,225,226,227,228,229,230,231,232,233,234,235,236,237,238,239,240,241,242,243,244,245,246,247,248,249,250,251,252,253,254,255,256,257,258,259,260,261,262,263,264,265,266,267,268,269,270,271,272,273,274,275,276,277,278,279,280,281,282,283,284,285,286,287,288,289,290,291,292,293,294,295,296,297,298,299,300,301,302,303,304,305,306,307,308,309,310,311,312,313,314,315,316,317,318,319,320,321,322,323,324,325,326,327,328,329,330,331,332,333,334,335,336,337,338,339,340,341,342,343,344,345,346,347,348,349,350,351,352,353,354,355,356,357,358,359,360,361,362,363,364,365,366,367,368,369,370,371,372,373,374,375,376,377,378,379,380,381,382,383,384,385,386,387,388,389,390,391,392,393,394,395,396,397,398,399,400,401,402,403,404,405,406,407,408,409,410,411,412,413,414,415,416,417,418,419,420,421,422,423,424,425,426,427,428,429,430,431,432,433,434,435,436,437,438,439,440,441,442,443,444,445,446,447,448,449,450,451,452,453,454,455,456,457,458,459,460,461,462,463,464,465,466,467,468,469,470,471,472,473,474,475,476,477,478,479,480,481,482,483,484,485,486,487,488,489,490,491,492,493,494,495,496,497,498,499,500],"tree_info":[0,0,0,0,0,0,0,0,0,0,0,0,0,0,0,0,0,0,0,0,0,0,0,0,0,0,0,0,0,0,0,0,0,0,0,0,0,0,0,0,0,0,0,0,0,0,0,0,0,0,0,0,0,0,0,0,0,0,0,0,0,0,0,0,0,0,0,0,0,0,0,0,0,0,0,0,0,0,0,0,0,0,0,0,0,0,0,0,0,0,0,0,0,0,0,0,0,0,0,0,0,0,0,0,0,0,0,0,0,0,0,0,0,0,0,0,0,0,0,0,0,0,0,0,0,0,0,0,0,0,0,0,0,0,0,0,0,0,0,0,0,0,0,0,0,0,0,0,0,0,0,0,0,0,0,0,0,0,0,0,0,0,0,0,0,0,0,0,0,0,0,0,0,0,0,0,0,0,0,0,0,0,0,0,0,0,0,0,0,0,0,0,0,0,0,0,0,0,0,0,0,0,0,0,0,0,0,0,0,0,0,0,0,0,0,0,0,0,0,0,0,0,0,0,0,0,0,0,0,0,0,0,0,0,0,0,0,0,0,0,0,0,0,0,0,0,0,0,0,0,0,0,0,0,0,0,0,0,0,0,0,0,0,0,0,0,0,0,0,0,0,0,0,0,0,0,0,0,0,0,0,0,0,0,0,0,0,0,0,0,0,0,0,0,0,0,0,0,0,0,0,0,0,0,0,0,0,0,0,0,0,0,0,0,0,0,0,0,0,0,0,0,0,0,0,0,0,0,0,0,0,0,0,0,0,0,0,0,0,0,0,0,0,0,0,0,0,0,0,0,0,0,0,0,0,0,0,0,0,0,0,0,0,0,0,0,0,0,0,0,0,0,0,0,0,0,0,0,0,0,0,0,0,0,0,0,0,0,0,0,0,0,0,0,0,0,0,0,0,0,0,0,0,0,0,0,0,0,0,0,0,0,0,0,0,0,0,0,0,0,0,0,0,0,0,0,0,0,0,0,0,0,0,0,0,0,0,0,0,0,0,0,0,0,0,0,0,0,0,0,0,0,0,0,0,0,0,0,0,0,0,0,0,0,0,0,0,0,0,0,0,0,0,0,0,0,0,0,0,0,0,0,0,0,0,0,0,0,0,0,0,0,0,0,0,0,0,0,0,0],"trees":[{"base_weights":[-4.319705E-3,-2.3954787E0,1.0484899E0,-3.8295598E0,-1.5521307E0,2.2948378E-1,2.073976E0,-5.118713E0,-3.4901986E0,-2.0774257E0,-1.1888754E0,-1.7576966E-1,5.326207E-1,1.6179959E0,2.684172E0,-5.30415E0,-1.9013408E-1,-3.7548974E0,-3.2449987E0,-2.354669E0,-1.8980913E0,-1.4159464E0,-9.1278255E-1,-4.4126683E-1,-1.6077098E-2,3.801706E-1,9.660255E-1,1.3847594E0,1.8836772E0,2.396633E0,2.9764428E0,-2.2698429E-1,-2.0703816E-1,-3.9930189E0,-3.6219149E0,-3.3073058E0,-1.1705833E-1,-1.0074086E-1,-2.2582488E0,-1.9934655E0,-1.7657282E0,-1.5186507E0,-1.28582E0,-1.0187571E0,-7.9624027E-1,-5.4659E-1,-3.3225256E-1,-1.1208849E-1,8.2034305E-2,2.959204E-1,5.1677376E-1,8.0218977E-1,1.0458326E0,1.2801292E0,1.5062188E0,1.7725464E0,2.0003629E0,2.291303E0,2.5449412E0,2.837492E0,3.157857E0,-1.6942476E-1,-1.5656587E-1,-1.4837036E-1,-1.4229734E-1,-1.3574412E-1,-1.2896094E-1,-9.243628E-2,-8.7356485E-2,-8.259566E-2,-7.753734E-2,-7.273175E-2,-6.772096E-2,-6.263766E-2,-5.830118E-2,-5.4205902E-2,-4.924742E-2,-4.3188594E-2,-3.8726E-2,-3.3874534E-2,-7.4064404E-1,-6.0183436E-1,-4.8754007E-1,-3.8722047E-1,-2.7578792E-1,-1.7172837E-1,-6.1815094E-2,3.5191495E-2,1.3006015E-1,2.3984282E-1,3.455524E-1,4.640732E-1,6.004978E-1,7.504958E-1,3.4962866E-2,9.932781E-1,1.0907632E0,1.2156266E0,1.3326951E0,5.7555668E-2,6.231004E-2,6.8101265E-2,7.332877E-2,7.773301E-2,8.333415E-2,8.812235E-2,9.3867846E-2,9.9246144E-2,1.0498354E-1,1.10808425E-1,1.1763566E-1,1.2240994E-1,1.315392E-1,-3.0339757E-2,-2.807338E-2,-2.5456624E-2,-2.274537E-2,-2.0515824E-2,-1.839917E-2,-1.657784E-2,-1.43846E-2,-1.1861704E-2,-1.0122069E-2,-1.9901869E-1,-1.437255E-1,-8.535702E-2,-3.4539558E-2,1.4858757E-2,2.5067728E-3,1.0533431E-1,1.5496518E-1,2.0993106E-1,2.6740858E-1,3.2002625E-1,3.7574205E-1,1.7399779E-2,4.909821E-1,2.250582E-2,2.5487296E-2,2.817179E-2,3.0977897E-2,3.8433637E-2,4.0668264E-2,4.233313E-2,4.4622913E-2,4.7408435E-2,4.9812764E-2,5.190138E-2,5.439051E-2,-8.756689E-3,-7.469791E-3,-6.1057378E-3,-5.049898E-3,-3.9604525E-3,-2.7887013E-3,-2.016973E-3,-1.0393639E-3,1.0675384E-5,1.087952E-3,3.8383277E-3,4.90354E-3,5.512089E-3,6.5457383E-3,7.7771493E-3,8.900317E-3,1.0007965E-2,1.1138734E-2,1.2187746E-2,1.3268322E-2,1.4369171E-2,1.557056E-2,1.9122366E-2,2.0559127E-2],"categories":[],"categories_nodes":[],"categories_segments":[],"categories_sizes":[],"default_left":[0,0,0,0,0,0,0,0,0,0,0,0,0,0,0,0,0,0,0,0,0,0,0,0,0,0,0,0,0,0,0,0,0,0,0,0,0,0,0,0,0,0,0,0,0,0,0,0,0,0,0,0,0,0,0,0,0,0,0,0,0,0,0,0,0,0,0,0,0,0,0,0,0,0,0,0,0,0,0,0,0,0,0,0,0,0,0,0,0,0,0,0,0,0,0,0,0,0,0,0,0,0,0,0,0,0,0,0,0,0,0,0,0,0,0,0,0,0,0,0,0,0,0,0,0,0,0,0,0,0,0,0,0,0,0,0,0,0,0,0,0,0,0,0,0,0,0,0,0,0,0,0,0,0,0,0,0,0,0,0,0,0,0,0,0,0,0,0,0,0,0,0,0],"id":0,"left_children":[1,3,5,7,9,11,13,15,17,19,21,23,25,27,29,31,-1,33,35,37,39,41,43,45,47,49,51,53,55,57,59,-1,-1,61,63,65,-1,-1,67,69,71,73,75,77,79,81,83,85,87,89,91,93,95,97,99,101,103,105,107,109,111,-1,-1,-1,-1,-1,-1,-1,-1,-1,-1,-1,-1,-1,-1,-1,-1,-1,-1,-1,113,115,117,119,121,123,125,127,129,131,133,135,137,139,-1,141,143,145,147,-1,-1,-1,-1,-1,-1,-1,-1,-1,-1,-1,-1,-1,-1,-1,-1,-1,-1,-1,-1,-1,-1,-1,-1,149,151,153,155,157,-1,159,161,163,165,167,169,-1,171,-1,-1,-1,-1,-1,-1,-1,-1,-1,-1,-1,-1,-1,-1,-1,-1,-1,-1,-1,-1,-1,-1,-1,-1,-1,-1,-1,-1,-1,-1,-1,-1,-1,-1,-1,-1],"loss_changes":[2.1463903E5,3.1516625E4,4.9717863E4,4.2043438E3,3.1295898E3,4.0433667E3,7.309117E3,1.1089453E2,4.83875E2,3.2909766E2,6.0720215E2,5.971677E2,1.2437134E3,9.297383E2,9.3746875E2,3.3507812E1,0E0,1.0171875E2,6.921484E1,3.5878906E1,4.797461E1,6.920117E1,5.332129E1,6.0556763E1,8.286586E1,1.6017688E2,6.3216797E1,9.994336E1,8.762695E1,8.275391E1,1.3144531E2,0E0,0E0,8.392578E0,1.23046875E-1,1.2902344E1,0E0,0E0,1.4746094E0,5.286133E0,3.4838867E0,6.302246E0,7.251465E0,6.0251465E0,5.26062E0,8.478516E0,7.9691467E0,1.331982E1,9.78372E0,2.3905945E1,2.3163818E1,5.322754E0,6.687744E0,1.3003906E1,1.0609375E1,1.2214844E1,1.2149414E1,1.1087891E1,5.4072266E0,1.3865234E1,2.0626953E1,0E0,0E0,0E0,0E0,0E0,0E0,0E0,0E0,0E0,0E0,0E0,0E0,0E0,0E0,0E0,0E0,0E0,0E0,0E0,1.638794E-1,1.2282715E0,6.760254E-1,8.4002686E-1,5.3227234E-1,1.5250282E0,1.5471268E0,1.2304425E0,1.3064117E0,3.283249E0,3.4015503E0,2.3412476E0,2.4866943E0,4.981079E-1,0E0,1.842041E-1,2.3876953E-1,2.8320312E-1,4.873047E-1,0E0,0E0,0E0,0E0,0E0,0E0,0E0,0E0,0E0,0E0,0E0,0E0,0E0,0E0,0E0,0E0,0E0,0E0,0E0,0E0,0E0,0E0,0E0,0E0,2.0994568E-1,1.3768959E-1,2.6963902E-1,1.5089941E-1,2.2831431E-1,0E0,1.6311741E-1,1.3652039E-1,3.3634186E-1,3.307953E-1,3.4365845E-1,3.2635498E-1,0E0,2.558899E-1,0E0,0E0,0E0,0E0,0E0,0E0,0E0,0E0,0E0,0E0,0E0,0E0,0E0,0E0,0E0,0E0,0E0,0E0,0E0,0E0,0E0,0E0,0E0,0E0,0E0,0E0,0E0,0E0,0E0,0E0,0E0,0E0,0E0,0E0,0E0,0E0],"parents":[2147483647,0,0,1,1,2,2,3,3,4,4,5,5,6,6,7,7,8,8,9,9,10,10,11,11,12,12,13,13,14,14,15,15,17,17,18,18,19,19,20,20,21,21,22,22,23,23,24,24,25,25,26,26,27,27,28,28,29,29,30,30,33,33,34,34,35,35,38,38,39,39,40,40,41,41,42,42,43,43,44,44,45,45,46,46,47,47,48,48,49,49,50,50,51,51,52,52,53,53,54,54,55,55,56,56,57,57,58,58,59,59,60,60,80,80,81,81,82,82,83,83,84,84,85,85,86,86,87,87,88,88,89,89,90,90,91,91,92,92,93,93,95,95,96,96,97,97,98,98,123,123,124,124,125,125,126,126,127,127,129,129,130,130,131,131,132,132,133,133,134,134,136,136],"right_children":[2,4,6,8,10,12,14,16,18,20,22,24,26,28,30,32,-1,34,36,38,40,42,44,46,48,50,52,54,56,58,60,-1,-1,62,64,66,-1,-1,68,70,72,74,76,78,80,82,84,86,88,90,92,94,96,98,100,102,104,106,108,110,112,-1,-1,-1,-1,-1,-1,-1,-1,-1,-1,-1,-1,-1,-1,-1,-1,-1,-1,-1,114,116,118,120,122,124,126,128,130,132,134,136,138,140,-1,142,144,146,148,-1,-1,-1,-1,-1,-1,-1,-1,-1,-1,-1,-1,-1,-1,-1,-1,-1,-1,-1,-1,-1,-1,-1,-1,150,152,154,156,158,-1,160,162,164,166,168,170,-1,172,-1,-1,-1,-1,-1,-1,-1,-1,-1,-1,-1,-1,-1,-1,-1,-1,-1,-1,-1,-1,-1,-1,-1,-1,-1,-1,-1,-1,-1,-1,-1,-1,-1,-1,-1,-1],"split_conditions":[7.0135E1,6.8125E1,7.197E1,6.637E1,6.917741E1,7.0995E1,7.2965E1,6.5785E1,6.7315E1,6.868171E1,6.9665E1,7.0585E1,7.15E1,7.245E1,7.351E1,6.5355E1,-1.9013408E-1,6.701E1,6.7670044E1,6.8415E1,6.895E1,6.940834E1,6.9925E1,7.038E1,7.0805E1,7.1225E1,7.1745E1,7.221E1,7.2705E1,7.3235E1,7.3815E1,-2.2698429E-1,-2.0703816E-1,6.669E1,6.7195E1,6.7515E1,-1.1705833E-1,-1.0074086E-1,6.858E1,6.881E1,6.9065E1,6.9305275E1,6.9515274E1,6.9795E1,7.0025E1,7.0275E1,7.049E1,7.07E1,7.09E1,7.111E1,7.135E1,7.164E1,7.186E1,7.209E1,7.231E1,7.257934E1,7.2845E1,7.3085E1,7.3395E1,7.3685E1,7.3985E1,-1.6942476E-1,-1.5656587E-1,-1.4837036E-1,-1.4229734E-1,-1.3574412E-1,-1.2896094E-1,-9.243628E-2,-8.7356485E-2,-8.259566E-2,-7.753734E-2,-7.273175E-2,-6.772096E-2,-6.263766E-2,-5.830118E-2,-5.4205902E-2,-4.924742E-2,-4.3188594E-2,-3.8726E-2,-3.3874534E-2,7.0095E1,7.022E1,7.0328766E1,7.0425E1,7.0545E1,7.066E1,7.076E1,7.086E1,7.0935E1,7.1055E1,7.1165E1,7.128E1,7.1415E1,7.1555E1,3.4962866E-2,7.1805E1,7.19E1,7.2035E1,7.2140175E1,5.7555668E-2,6.231004E-2,6.8101265E-2,7.332877E-2,7.773301E-2,8.333415E-2,8.812235E-2,9.3867846E-2,9.9246144E-2,1.0498354E-1,1.10808425E-1,1.1763566E-1,1.2240994E-1,1.315392E-1,-3.0339757E-2,-2.807338E-2,-2.5456624E-2,-2.274537E-2,-2.0515824E-2,-1.839917E-2,-1.657784E-2,-1.43846E-2,-1.1861704E-2,-1.0122069E-2,7.061E1,7.068E1,7.0735E1,7.0775E1,7.083E1,2.5067728E-3,7.093E1,7.0965E1,7.1025E1,7.108E1,7.1135E1,7.119E1,1.7399779E-2,7.132E1,2.250582E-2,2.5487296E-2,2.817179E-2,3.0977897E-2,3.8433637E-2,4.0668264E-2,4.233313E-2,4.4622913E-2,4.7408435E-2,4.9812764E-2,5.190138E-2,5.439051E-2,-8.756689E-3,-7.469791E-3,-6.1057378E-3,-5.049898E-3,-3.9604525E-3,-2.7887013E-3,-2.016973E-3,-1.0393639E-3,1.0675384E-5,1.087952E-3,3.8383277E-3,4.90354E-3,5.512089E-3,6.5457383E-3,7.7771493E-3,8.900317E-3,1.0007965E-2,1.1138734E-2,1.2187746E-2,1.3268322E-2,1.4369171E-2,1.557056E-2,1.9122366E-2,2.0559127E-2],"split_indices":[3,3,3,9,19,3,3,0,3,18,3,3,3,3,3,1,0,3,19,3,1,18,1,3,3,3,3,3,3,3,3,0,0,2,3,3,0,0,3,3,3,18,18,3,3,3,3,3,3,3,3,3,3,3,3,18,1,3,1,3,1,0,0,0,0,0,0,0,0,0,0,0,0,0,0,0,0,0,0,0,3,3,18,3,3,1,3,3,2,3,3,3,3,1,0,3,3,3,18,0,0,0,0,0,0,0,0,0,0,0,0,0,0,0,0,0,0,0,0,0,0,0,0,3,3,3,3,3,0,3,3,3,3,3,3,0,3,0,0,0,0,0,0,0,0,0,0,0,0,0,0,0,0,0,0,0,0,0,0,0,0,0,0,0,0,0,0,0,0,0,0,0,0],"split_type":[0,0,0,0,0,0,0,0,0,0,0,0,0,0,0,0,0,0,0,0,0,0,0,0,0,0,0,0,0,0,0,0,0,0,0,0,0,0,0,0,0,0,0,0,0,0,0,0,0,0,0,0,0,0,0,0,0,0,0,0,0,0,0,0,0,0,0,0,0,0,0,0,0,0,0,0,0,0,0,0,0,0,0,0,0,0,0,0,0,0,0,0,0,0,0,0,0,0,0,0,0,0,0,0,0,0,0,0,0,0,0,0,0,0,0,0,0,0,0,0,0,0,0,0,0,0,0,0,0,0,0,0,0,0,0,0,0,0,0,0,0,0,0,0,0,0,0,0,0,0,0,0,0,0,0,0,0,0,0,0,0,0,0,0,0,0,0,0,0,0,0,0,0],"sum_hessian":[8.5259E4,2.6063E4,5.9196E4,9.65E3,1.6413E4,3.2912E4,2.6284E4,2.008E3,7.642E3,6.708E3,9.705E3,1.4084E4,1.8828E4,1.5045E4,1.1239E4,1.323E3,6.85E2,3.668E3,3.974E3,2.63E3,4.078E3,5.323E3,4.382E3,5.289E3,8.795E3,1.393E4,4.898E3,8.015E3,7.03E3,5.67E3,5.569E3,3.29E2,9.94E2,1.304E3,2.364E3,3.316E3,6.58E2,9.65E2,1.665E3,2.362E3,1.716E3,2.969E3,2.354E3,2.291E3,2.091E3,2.688E3,2.601E3,4.445E3,4.35E3,8.618E3,5.312E3,1.608E3,3.29E3,4.312E3,3.703E3,3.609E3,3.421E3,3.325E3,2.345E3,3.163E3,2.406E3,3.07E2,9.97E2,9.8E2,1.384E3,1.609E3,1.707E3,9.57E2,7.08E2,1.012E3,1.35E3,9.82E2,7.34E2,1.66E3,1.309E3,1.027E3,1.327E3,1.03E3,1.261E3,1.087E3,1.004E3,1.384E3,1.304E3,1.315E3,1.286E3,2.032E3,2.413E3,2.203E3,2.147E3,4.049E3,4.569E3,3.264E3,2.048E3,9.42E2,6.66E2,1.527E3,1.763E3,1.947E3,2.365E3,1.618E3,2.085E3,1.689E3,1.92E3,2.042E3,1.379E3,1.298E3,2.027E3,1.32E3,1.025E3,1.933E3,1.23E3,1.391E3,1.015E3,6.75E2,3.29E2,6.69E2,7.15E2,6.7E2,6.34E2,6.55E2,6.6E2,6.66E2,6.2E2,1.026E3,1.006E3,1.294E3,1.119E3,1.267E3,9.36E2,1.08E3,1.067E3,1.946E3,2.103E3,2.482E3,2.087E3,1.577E3,1.687E3,1.016E3,1.032E3,3.32E2,6.1E2,6.58E2,8.69E2,7.83E2,9.8E2,9.82E2,9.65E2,1.05E3,1.315E3,3.85E2,6.41E2,6.61E2,3.45E2,6.88E2,6.06E2,3.9E2,7.29E2,5.81E2,6.86E2,7.04E2,3.76E2,3.64E2,7.03E2,8.79E2,1.067E3,8.32E2,1.271E3,1.085E3,1.397E3,9.52E2,1.135E3,1.094E3,5.93E2],"tree_param":{"num_deleted":"0","num_feature":"25","num_nodes":"173","size_leaf_vector":"1"}},{"base_weights":[-1.1214645E-3,-2.2990243E0,1.0117329E0,-3.6740112E0,-1.4893409E0,2.2268161E-1,1.9909832E0,-4.915423E0,-3.3478014E0,-1.9986755E0,-1.1429724E0,-1.6793436E-1,5.12055E-1,1.5522596E0,2.577018E0,-5.093742E0,-1.8219677E-1,-3.609401E0,-3.1165211E0,-2.2627034E0,-1.8195208E0,-1.3598162E0,-8.75803E-1,-4.2216846E-1,-1.6512975E-2,3.5800624E-1,9.0748024E-1,1.329085E0,1.8100308E0,2.281312E0,2.8412914E0,-2.1815328E-1,-1.9874452E-1,-3.8345942E0,-1.391653E-1,-3.1774938E0,-1.1220861E-1,-9.672613E-2,-2.1664786E0,-1.911767E0,-1.6935359E0,-1.4563634E0,-1.2336316E0,-9.745878E-1,-7.593144E-1,-5.223003E-1,-3.1809524E-1,-1.1774251E-1,7.064181E-2,2.7741802E-1,4.793608E-1,7.233147E-1,9.9277145E-1,1.2290686E0,1.4464419E0,1.6940235E0,1.9122938E0,2.173781E0,2.3945837E0,2.6958926E0,3.0138733E0,-1.6256647E-1,-1.5030701E-1,-1.3095282E-1,-1.2431625E-1,-8.874015E-2,-8.390629E-2,-7.9272315E-2,-7.431494E-2,-6.975169E-2,-6.493636E-2,-6.0163707E-2,-5.604704E-2,-5.1329136E-2,-4.6657495E-2,-4.142491E-2,-9.2764276E-1,-3.2512546E-2,-7.0648825E-1,-5.765477E-1,-4.6686918E-1,-3.721785E-1,-2.6380473E-1,-1.6489495E-1,-6.79091E-2,2.1465862E-2,1.208489E-1,2.2304383E-1,3.1999335E-1,4.3422684E-1,5.5622643E-1,6.7775667E-1,3.1626794E-2,9.3257535E-1,1.04183E0,1.1675184E0,1.2797198E0,5.573399E-2,6.0247134E-2,6.535432E-2,7.001539E-2,7.40066E-2,7.942586E-2,8.463002E-2,8.9154534E-2,9.287402E-2,9.8500796E-2,1.0537396E-1,1.1165058E-1,1.1703275E-1,1.2639178E-1,-3.778939E-2,-3.5104074E-2,-2.9039957E-2,-2.6820237E-2,-2.44687E-2,-2.1841401E-2,-1.9675007E-2,-1.7632078E-2,-1.5932607E-2,-1.3804942E-2,-1.1375625E-2,-9.697724E-3,-1.902192E-1,-1.3755515E-1,-9.005211E-2,-1.9122788E-3,-5.122207E-4,4.8177533E-2,9.620324E-2,1.4703567E-1,1.9651498E-1,2.4524145E-1,2.9842198E-1,3.488757E-1,4.059198E-1,4.631711E-1,2.0919016E-2,2.345725E-2,2.6247453E-2,2.867728E-2,3.5454806E-2,3.8364764E-2,4.0482767E-2,4.2817783E-2,4.5511987E-2,4.785655E-2,4.9797114E-2,5.2209653E-2,-8.032402E-3,-6.7450237E-3,-5.8326307E-3,-4.8358142E-3,-4.2207516E-3,-3.2944062E-3,-5.679544E-4,4.7410376E-4,1.6465934E-3,2.52546E-3,3.3866363E-3,4.4275457E-3,5.296035E-3,6.309942E-3,7.329805E-3,8.227154E-3,9.232757E-3,1.0267085E-2,1.1401433E-2,1.2514313E-2,1.3428331E-2,1.4442249E-2,1.5525666E-2,1.6726732E-2,1.795924E-2,1.9173898E-2],"categories":[],"categories_nodes":[],"categories_segments":[],"categories_sizes":[],"default_left":[0,0,0,0,0,0,0,0,0,0,0,0,0,0,0,0,0,0,0,0,0,0,0,0,0,0,0,0,0,0,0,0,0,0,0,0,0,0,0,0,0,0,0,0,0,0,0,0,0,0,0,0,0,0,0,0,0,0,0,0,0,0,0,0,0,0,0,0,0,0,0,0,0,0,0,0,0,0,0,0,0,0,0,0,0,0,0,0,0,0,0,0,0,0,0,0,0,0,0,0,0,0,0,0,0,0,0,0,0,0,0,0,0,0,0,0,0,0,0,0,0,0,0,0,0,0,0,0,0,0,0,0,0,0,0,0,0,0,0,0,0,0,0,0,0,0,0,0,0,0,0,0,0,0,0,0,0,0,0,0,0,0,0,0,0,0,0,0,0,0,0,0,0,0,0],"id":1,"left_children":[1,3,5,7,9,11,13,15,17,19,21,23,25,27,29,31,-1,33,35,37,39,41,43,45,47,49,51,53,55,57,59,-1,-1,61,-1,63,-1,-1,65,67,69,71,73,75,77,79,81,83,85,87,89,91,93,95,97,99,101,103,105,107,109,-1,-1,-1,-1,-1,-1,-1,-1,-1,-1,-1,-1,-1,-1,-1,111,-1,113,115,117,119,121,123,125,127,129,131,133,135,137,139,-1,141,143,145,147,-1,-1,-1,-1,-1,-1,-1,-1,-1,-1,-1,-1,-1,-1,-1,-1,-1,-1,-1,-1,-1,-1,-1,-1,-1,-1,149,151,153,-1,155,157,159,161,163,165,167,169,171,173,-1,-1,-1,-1,-1,-1,-1,-1,-1,-1,-1,-1,-1,-1,-1,-1,-1,-1,-1,-1,-1,-1,-1,-1,-1,-1,-1,-1,-1,-1,-1,-1,-1,-1,-1,-1,-1,-1],"loss_changes":[1.9771147E5,2.8927062E4,4.5556695E4,3.883711E3,2.8835547E3,3.6908677E3,6.7602344E3,1.0549609E2,4.5039062E2,3.0901953E2,5.630283E2,5.3494006E2,1.1422534E3,8.6327734E2,8.736094E2,3.2875E1,0E0,9.150391E1,6.809375E1,3.4729492E1,4.265625E1,6.3674805E1,4.9500732E1,5.3887756E1,7.685349E1,1.3189368E2,8.187305E1,9.293359E1,7.956445E1,5.959375E1,1.4100781E2,0E0,0E0,7.6835938E0,0E0,1.2515625E1,0E0,0E0,1.2895508E0,4.8945312E0,3.0825195E0,5.8969727E0,6.28833E0,5.798584E0,5.100708E0,7.675293E0,7.377411E0,9.458363E0,1.15547085E1,1.8714844E1,1.8443848E1,4.5825195E0,9.633301E0,1.210791E1,9.658203E0,8.259766E0,1.3197266E1,4.0429688E0,7.036133E0,1.16328125E1,2.5560547E1,0E0,0E0,0E0,0E0,0E0,0E0,0E0,0E0,0E0,0E0,0E0,0E0,0E0,0E0,0E0,3.1958008E-1,0E0,2.2790527E-1,1.0942993E0,6.383667E-1,7.627106E-1,4.9129486E-1,1.4070206E0,8.6857796E-1,1.3890353E0,1.4805794E0,2.0523224E0,2.730072E0,2.5960693E0,1.690918E0,3.7625122E-1,0E0,1.1392822E0,5.942383E-1,3.3984375E-1,4.9121094E-1,0E0,0E0,0E0,0E0,0E0,0E0,0E0,0E0,0E0,0E0,0E0,0E0,0E0,0E0,0E0,0E0,0E0,0E0,0E0,0E0,0E0,0E0,0E0,0E0,0E0,0E0,2.112999E-1,1.1985397E-1,1.0218811E-1,0E0,2.2000164E-1,1.0943723E-1,1.9050789E-1,1.5486526E-1,1.6052628E-1,2.6039124E-1,4.153595E-1,1.8978882E-1,2.135315E-1,1.6879272E-1,0E0,0E0,0E0,0E0,0E0,0E0,0E0,0E0,0E0,0E0,0E0,0E0,0E0,0E0,0E0,0E0,0E0,0E0,0E0,0E0,0E0,0E0,0E0,0E0,0E0,0E0,0E0,0E0,0E0,0E0,0E0,0E0,0E0,0E0,0E0,0E0,0E0,0E0],"parents":[2147483647,0,0,1,1,2,2,3,3,4,4,5,5,6,6,7,7,8,8,9,9,10,10,11,11,12,12,13,13,14,14,15,15,17,17,18,18,19,19,20,20,21,21,22,22,23,23,24,24,25,25,26,26,27,27,28,28,29,29,30,30,33,33,35,35,38,38,39,39,40,40,41,41,42,42,43,43,44,44,45,45,46,46,47,47,48,48,49,49,50,50,51,51,52,52,53,53,54,54,55,55,56,56,57,57,58,58,59,59,60,60,76,76,78,78,79,79,80,80,81,81,82,82,83,83,84,84,85,85,86,86,87,87,88,88,89,89,90,90,91,91,93,93,94,94,95,95,96,96,123,123,124,124,125,125,127,127,128,128,129,129,130,130,131,131,132,132,133,133,134,134,135,135,136,136],"right_children":[2,4,6,8,10,12,14,16,18,20,22,24,26,28,30,32,-1,34,36,38,40,42,44,46,48,50,52,54,56,58,60,-1,-1,62,-1,64,-1,-1,66,68,70,72,74,76,78,80,82,84,86,88,90,92,94,96,98,100,102,104,106,108,110,-1,-1,-1,-1,-1,-1,-1,-1,-1,-1,-1,-1,-1,-1,-1,112,-1,114,116,118,120,122,124,126,128,130,132,134,136,138,140,-1,142,144,146,148,-1,-1,-1,-1,-1,-1,-1,-1,-1,-1,-1,-1,-1,-1,-1,-1,-1,-1,-1,-1,-1,-1,-1,-1,-1,-1,150,152,154,-1,156,158,160,162,164,166,168,170,172,174,-1,-1,-1,-1,-1,-1,-1,-1,-1,-1,-1,-1,-1,-1,-1,-1,-1,-1,-1,-1,-1,-1,-1,-1,-1,-1,-1,-1,-1,-1,-1,-1,-1,-1,-1,-1,-1,-1],"split_conditions":[7.013648E1,6.8105E1,7.197E1,6.637E1,6.917566E1,7.0995E1,7.2965E1,6.577E1,6.7305E1,6.868171E1,6.9665E1,7.0585E1,7.147E1,7.245E1,7.347E1,6.531E1,-1.8219677E-1,6.701E1,6.766968E1,6.841563E1,6.893903E1,6.940834E1,6.992E1,7.038E1,7.079E1,7.121E1,7.1695E1,7.220875E1,7.2695E1,7.319058E1,7.379E1,-2.1815328E-1,-1.9874452E-1,6.6704636E1,-1.391653E-1,6.748367E1,-1.1220861E-1,-9.672613E-2,6.858E1,6.881047E1,6.9065E1,6.9305E1,6.955E1,6.9795E1,7.0025E1,7.027516E1,7.049E1,7.07E1,7.089E1,7.11E1,7.1335E1,7.1595E1,7.185E1,7.209E1,7.2335E1,7.258E1,7.280607E1,7.3085E1,7.330027E1,7.3645E1,7.397193E1,-1.6256647E-1,-1.5030701E-1,-1.3095282E-1,-1.2431625E-1,-8.874015E-2,-8.390629E-2,-7.9272315E-2,-7.431494E-2,-6.975169E-2,-6.493636E-2,-6.0163707E-2,-5.604704E-2,-5.1329136E-2,-4.6657495E-2,-4.142491E-2,6.9875E1,-3.2512546E-2,7.0095E1,7.021E1,7.0328766E1,7.0425E1,7.0545E1,7.065E1,7.0745E1,7.0845E1,7.0945E1,7.1045E1,7.1155E1,7.127E1,7.139E1,7.1545E1,3.1626794E-2,7.178E1,7.19E1,7.2035E1,7.2140175E1,5.573399E-2,6.0247134E-2,6.535432E-2,7.001539E-2,7.40066E-2,7.942586E-2,8.463002E-2,8.9154534E-2,9.287402E-2,9.8500796E-2,1.0537396E-1,1.1165058E-1,1.1703275E-1,1.2639178E-1,-3.778939E-2,-3.5104074E-2,-2.9039957E-2,-2.6820237E-2,-2.44687E-2,-2.1841401E-2,-1.9675007E-2,-1.7632078E-2,-1.5932607E-2,-1.3804942E-2,-1.1375625E-2,-9.697724E-3,7.063E1,7.068E1,7.0715E1,-1.9122788E-3,7.0815E1,7.0875E1,7.091719E1,7.096404E1,7.101653E1,7.107E1,7.112687E1,7.118E1,7.1235E1,7.13E1,2.0919016E-2,2.345725E-2,2.6247453E-2,2.867728E-2,3.5454806E-2,3.8364764E-2,4.0482767E-2,4.2817783E-2,4.5511987E-2,4.785655E-2,4.9797114E-2,5.2209653E-2,-8.032402E-3,-6.7450237E-3,-5.8326307E-3,-4.8358142E-3,-4.2207516E-3,-3.2944062E-3,-5.679544E-4,4.7410376E-4,1.6465934E-3,2.52546E-3,3.3866363E-3,4.4275457E-3,5.296035E-3,6.309942E-3,7.329805E-3,8.227154E-3,9.232757E-3,1.0267085E-2,1.1401433E-2,1.2514313E-2,1.3428331E-2,1.4442249E-2,1.5525666E-2,1.6726732E-2,1.795924E-2,1.9173898E-2],"split_indices":[18,2,3,9,18,3,3,2,2,18,3,3,3,3,3,16,0,3,18,18,18,18,3,3,3,3,3,18,3,18,3,0,0,18,0,18,0,0,3,18,3,3,3,3,3,18,3,3,3,3,3,3,3,3,3,3,18,3,18,3,18,0,0,0,0,0,0,0,0,0,0,0,0,0,0,0,3,0,3,2,18,3,3,3,3,3,3,3,3,3,3,3,0,3,3,3,18,0,0,0,0,0,0,0,0,0,0,0,0,0,0,0,0,0,0,0,0,0,0,0,0,0,0,3,3,3,0,3,3,18,18,18,3,18,3,3,3,0,0,0,0,0,0,0,0,0,0,0,0,0,0,0,0,0,0,0,0,0,0,0,0,0,0,0,0,0,0,0,0,0,0,0,0,0,0],"split_type":[0,0,0,0,0,0,0,0,0,0,0,0,0,0,0,0,0,0,0,0,0,0,0,0,0,0,0,0,0,0,0,0,0,0,0,0,0,0,0,0,0,0,0,0,0,0,0,0,0,0,0,0,0,0,0,0,0,0,0,0,0,0,0,0,0,0,0,0,0,0,0,0,0,0,0,0,0,0,0,0,0,0,0,0,0,0,0,0,0,0,0,0,0,0,0,0,0,0,0,0,0,0,0,0,0,0,0,0,0,0,0,0,0,0,0,0,0,0,0,0,0,0,0,0,0,0,0,0,0,0,0,0,0,0,0,0,0,0,0,0,0,0,0,0,0,0,0,0,0,0,0,0,0,0,0,0,0,0,0,0,0,0,0,0,0,0,0,0,0,0,0,0,0,0,0],"sum_hessian":[8.4946E4,2.5987E4,5.8959E4,9.63E3,1.6357E4,3.2651E4,2.6308E4,2.001E3,7.629E3,6.619E3,9.738E3,1.3895E4,1.8756E4,1.5047E4,1.1261E4,1.33E3,6.71E2,3.573E3,4.056E3,2.671E3,3.948E3,5.373E3,4.365E3,5.186E3,8.709E3,1.3499E4,5.257E3,8.068E3,6.979E3,5.319E3,5.942E3,3.32E2,9.98E2,1.299E3,2.274E3,3.384E3,6.72E2,1.012E3,1.659E3,2.271E3,1.677E3,3.038E3,2.335E3,2.358E3,2.007E3,2.641E3,2.545E3,4.029E3,4.68E3,8.114E3,5.385E3,1.667E3,3.59E3,4.362E3,3.706E3,3.278E3,3.701E3,2.739E3,2.58E3,3.234E3,2.708E3,3.13E2,9.86E2,1.4E3,1.984E3,9.27E2,7.32E2,9.72E2,1.299E3,9.63E2,7.14E2,1.615E3,1.423E3,1.333E3,1.002E3,1.016E3,1.342E3,9.9E2,1.017E3,1.33E3,1.311E3,1.272E3,1.273E3,2.069E3,1.96E3,2.365E3,2.315E3,3.566E3,4.548E3,3.397E3,1.988E3,1.001E3,6.66E2,1.621E3,1.969E3,1.98E3,2.382E3,1.975E3,1.731E3,1.6E3,1.678E3,2.018E3,1.683E3,1.353E3,1.386E3,1.263E3,1.317E3,1.983E3,1.251E3,1.702E3,1.006E3,9.87E2,3.55E2,6.47E2,3.7E2,6.09E2,7.21E2,6.6E2,6.51E2,6.4E2,6.32E2,6.42E2,6.31E2,1.071E3,9.98E2,9.31E2,1.029E3,1.298E3,1.067E3,1.195E3,1.12E3,1.629E3,1.937E3,2.61E3,1.938E3,1.725E3,1.672E3,9.55E2,1.033E3,6.57E2,3.44E2,6.04E2,1.017E3,9.83E2,9.86E2,9.96E2,9.84E2,1.029E3,1.353E3,7.13E2,3.58E2,6.62E2,3.36E2,3.05E2,6.26E2,6.16E2,6.82E2,7.29E2,3.38E2,6.69E2,5.26E2,4.79E2,6.41E2,6.74E2,9.55E2,8.66E2,1.071E3,1.365E3,1.245E3,9.45E2,9.93E2,7.17E2,1.008E3,9.06E2,7.66E2],"tree_param":{"num_deleted":"0","num_feature":"25","num_nodes":"175","size_leaf_vector":"1"}},{"base_weights":[-3.6120762E-3,-2.2100646E0,9.673061E-1,-3.525192E0,-1.4328892E0,2.1370867E-1,1.9135046E0,-4.721459E0,-3.2184932E0,-1.9200435E0,-1.098146E0,-1.6194175E-1,4.915028E-1,1.4906566E0,2.4700484E0,-4.9637194E0,-4.4731755E0,-3.4888606E0,-3.0117548E0,-2.173855E0,-1.7504622E0,-1.3211211E0,-8.560909E-1,-4.0142345E-1,-1.41695235E-2,3.5047877E-1,8.895406E-1,1.274803E0,1.7370528E0,2.2079148E0,2.7376788E0,-2.0943297E-1,-1.9288962E-1,-1.838783E-1,-1.6849563E-1,-3.731198E0,-3.3830304E0,-3.065545E0,-1.07645005E-1,-9.2817985E-2,-2.0830665E0,-1.8517478E0,-1.6480486E0,-1.4113302E0,-1.215311E0,-9.678062E-1,-7.441523E-1,-5.0023794E-1,-3.0179155E-1,-1.0985615E-1,6.863847E-2,2.6838806E-1,4.70863E-1,7.399607E-1,9.669673E-1,1.1802639E0,1.3877E0,1.6146799E0,1.8277466E0,2.1120832E0,2.3461092E0,2.63061E0,2.9360285E0,-1.5614745E-1,-1.4570014E-1,-1.391896E-1,-1.3233824E-1,-1.2662198E-1,-1.1941161E-1,-8.613499E-2,-8.1333175E-2,-7.6198824E-2,-7.196218E-2,-6.840481E-2,-6.3398235E-2,-5.822031E-2,-5.4623526E-2,-5.1204953E-2,-4.668151E-2,-4.1376032E-2,-3.6685348E-2,-3.2373752E-2,-6.948968E-1,-5.523143E-1,-4.4794455E-1,-3.569369E-1,-2.5125256E-1,-1.5570436E-1,-6.258842E-2,2.1078024E-2,1.1517801E-1,2.1547526E-1,3.0992997E-1,4.2449874E-1,5.552147E-1,2.6818302E-2,7.858187E-1,9.2017615E-1,1.0100299E0,1.122254E0,1.2293652E0,5.3102415E-2,5.74973E-2,6.2257938E-2,6.6370085E-2,7.0812255E-2,7.626949E-2,8.182137E-2,8.7035686E-2,9.1536455E-2,9.6821986E-2,1.02152176E-1,1.0903425E-1,1.1460318E-1,1.2279487E-1,-2.906417E-2,-2.6476318E-2,-2.3363745E-2,-2.0936765E-2,-1.8886203E-2,-1.6919814E-2,-1.526957E-2,-1.3250289E-2,-1.0905231E-2,-9.256177E-3,-1.8163274E-1,-1.315598E-1,-3.4085705E-3,-4.460698E-2,-1.7446933E-4,4.1195653E-2,9.411288E-2,5.7155103E-3,1.8866159E-1,2.3723103E-1,2.8809392E-1,3.3798748E-1,3.921918E-1,4.509953E-1,2.0836296E-2,2.3565575E-2,3.0388627E-2,3.333273E-2,3.552107E-2,3.76416E-2,3.9525457E-2,4.1628335E-2,4.3794736E-2,4.5997962E-2,4.8130244E-2,5.0375503E-2,-8.055623E-3,-6.879996E-3,-5.5744634E-3,-4.544854E-3,-2.3015237E-3,-1.4251653E-3,1.1587183E-3,2.1640786E-3,3.2053043E-3,4.3410035E-3,7.007352E-3,7.925922E-3,8.970632E-3,9.998968E-3,1.0975557E-2,1.2048505E-2,1.301476E-2,1.403501E-2,1.5004839E-2,1.6058037E-2,1.7301874E-2,1.8753288E-2],"categories":[],"categories_nodes":[],"categories_segments":[],"categories_sizes":[],"default_left":[0,0,0,0,0,0,0,0,0,0,0,0,0,0,0,0,0,0,0,0,0,0,0,0,0,0,0,0,0,0,0,0,0,0,0,0,0,0,0,0,0,0,0,0,0,0,0,0,0,0,0,0,0,0,0,0,0,0,0,0,0,0,0,0,0,0,0,0,0,0,0,0,0,0,0,0,0,0,0,0,0,0,0,0,0,0,0,0,0,0,0,0,0,0,0,0,0,0,0,0,0,0,0,0,0,0,0,0,0,0,0,0,0,0,0,0,0,0,0,0,0,0,0,0,0,0,0,0,0,0,0,0,0,0,0,0,0,0,0,0,0,0,0,0,0,0,0,0,0,0,0,0,0,0,0,0,0,0,0,0,0,0,0,0,0,0,0,0,0,0,0,0,0],"id":2,"left_children":[1,3,5,7,9,11,13,15,17,19,21,23,25,27,29,31,33,35,37,39,41,43,45,47,49,51,53,55,57,59,61,-1,-1,-1,-1,63,65,67,-1,-1,69,71,73,75,77,79,81,83,85,87,89,91,93,95,97,99,101,103,105,107,109,111,113,-1,-1,-1,-1,-1,-1,-1,-1,-1,-1,-1,-1,-1,-1,-1,-1,-1,-1,-1,115,117,119,121,123,125,127,129,131,133,135,137,139,-1,141,143,145,147,149,-1,-1,-1,-1,-1,-1,-1,-1,-1,-1,-1,-1,-1,-1,-1,-1,-1,-1,-1,-1,-1,-1,-1,-1,151,153,-1,155,-1,157,159,-1,161,163,165,167,169,171,-1,-1,-1,-1,-1,-1,-1,-1,-1,-1,-1,-1,-1,-1,-1,-1,-1,-1,-1,-1,-1,-1,-1,-1,-1,-1,-1,-1,-1,-1,-1,-1,-1,-1],"loss_changes":[1.8279045E5,2.6643758E4,4.224938E4,3.5378047E3,2.6706328E3,3.4420742E3,6.178297E3,9.652734E1,4.205078E2,2.8345703E2,5.233174E2,4.9625067E2,1.0640801E3,7.9184375E2,7.895156E2,1.2863281E1,1.2431641E1,7.290625E1,6.723828E1,3.06875E1,3.850293E1,4.654492E1,5.75791E1,5.253009E1,6.872907E1,1.382572E2,5.6729004E1,8.33418E1,7.439453E1,7.098242E1,1.1135156E2,0E0,0E0,0E0,0E0,1.140625E0,5.3046875E0,2.0574219E1,0E0,0E0,1.4194336E0,2.1987305E0,5.1259766E0,3.5146484E0,5.8085938E0,6.9140625E0,6.928955E0,7.064453E0,7.343231E0,8.7108345E0,1.0290073E1,1.8238953E1,2.1962524E1,4.878723E0,5.649414E0,1.098291E1,8.928223E0,5.13916E0,1.4750977E1,9.970703E0,4.5078125E0,1.9748047E1,9.7890625E0,0E0,0E0,0E0,0E0,0E0,0E0,0E0,0E0,0E0,0E0,0E0,0E0,0E0,0E0,0E0,0E0,0E0,0E0,0E0,9.164429E-1,9.256897E-1,6.126709E-1,6.8434143E-1,5.288391E-1,1.2544518E0,8.029723E-1,1.177803E0,1.3582706E0,2.093811E0,2.7594604E0,2.9621582E0,2.0324707E0,0E0,6.2664795E-1,2.2143555E-1,1.0681152E-1,2.5878906E-1,3.1860352E-1,0E0,0E0,0E0,0E0,0E0,0E0,0E0,0E0,0E0,0E0,0E0,0E0,0E0,0E0,0E0,0E0,0E0,0E0,0E0,0E0,0E0,0E0,0E0,0E0,1.5225983E-1,1.3265419E-1,0E0,1.2646556E-1,0E0,2.0122433E-1,2.608919E-1,0E0,1.7586517E-1,2.7768707E-1,3.9004517E-1,2.1679688E-1,1.1178589E-1,4.579773E-1,0E0,0E0,0E0,0E0,0E0,0E0,0E0,0E0,0E0,0E0,0E0,0E0,0E0,0E0,0E0,0E0,0E0,0E0,0E0,0E0,0E0,0E0,0E0,0E0,0E0,0E0,0E0,0E0,0E0,0E0,0E0,0E0,0E0,0E0],"parents":[2147483647,0,0,1,1,2,2,3,3,4,4,5,5,6,6,7,7,8,8,9,9,10,10,11,11,12,12,13,13,14,14,15,15,16,16,17,17,18,18,19,19,20,20,21,21,22,22,23,23,24,24,25,25,26,26,27,27,28,28,29,29,30,30,35,35,36,36,37,37,40,40,41,41,42,42,43,43,44,44,45,45,46,46,47,47,48,48,49,49,50,50,51,51,52,52,53,53,54,54,55,55,56,56,57,57,58,58,59,59,60,60,61,61,62,62,82,82,83,83,84,84,85,85,86,86,87,87,88,88,89,89,90,90,91,91,92,92,93,93,94,94,96,96,97,97,98,98,99,99,100,100,125,125,126,126,128,128,130,130,131,131,133,133,134,134,135,135,136,136,137,137,138,138],"right_children":[2,4,6,8,10,12,14,16,18,20,22,24,26,28,30,32,34,36,38,40,42,44,46,48,50,52,54,56,58,60,62,-1,-1,-1,-1,64,66,68,-1,-1,70,72,74,76,78,80,82,84,86,88,90,92,94,96,98,100,102,104,106,108,110,112,114,-1,-1,-1,-1,-1,-1,-1,-1,-1,-1,-1,-1,-1,-1,-1,-1,-1,-1,-1,116,118,120,122,124,126,128,130,132,134,136,138,140,-1,142,144,146,148,150,-1,-1,-1,-1,-1,-1,-1,-1,-1,-1,-1,-1,-1,-1,-1,-1,-1,-1,-1,-1,-1,-1,-1,-1,152,154,-1,156,-1,158,160,-1,162,164,166,168,170,172,-1,-1,-1,-1,-1,-1,-1,-1,-1,-1,-1,-1,-1,-1,-1,-1,-1,-1,-1,-1,-1,-1,-1,-1,-1,-1,-1,-1,-1,-1,-1,-1,-1,-1],"split_conditions":[7.013648E1,6.8135E1,7.196881E1,6.637E1,6.919E1,7.0992294E1,7.298E1,6.569141E1,6.7295E1,6.868171E1,6.961464E1,7.05886E1,7.149706E1,7.246E1,7.350862E1,6.5320404E1,6.6034294E1,6.694736E1,6.765E1,6.8415146E1,6.890946E1,6.938102E1,6.987728E1,7.037973E1,7.078994E1,7.1211876E1,7.176E1,7.220875E1,7.267739E1,7.3245E1,7.3855E1,-2.0943297E-1,-1.9288962E-1,-1.838783E-1,-1.6849563E-1,6.670171E1,6.7145E1,6.749E1,-1.07645005E-1,-9.2817985E-2,6.8528275E1,6.882E1,6.9035E1,6.9284355E1,6.9474464E1,6.975795E1,6.999046E1,7.027516E1,7.05E1,7.070016E1,7.09E1,7.109879E1,7.135205E1,7.159154E1,7.1875E1,7.208998E1,7.231096E1,7.2550934E1,7.280607E1,7.3125E1,7.3395E1,7.3684654E1,7.4075E1,-1.5614745E-1,-1.4570014E-1,-1.391896E-1,-1.3233824E-1,-1.2662198E-1,-1.1941161E-1,-8.613499E-2,-8.1333175E-2,-7.6198824E-2,-7.196218E-2,-6.840481E-2,-6.3398235E-2,-5.822031E-2,-5.4623526E-2,-5.1204953E-2,-4.668151E-2,-4.1376032E-2,-3.6685348E-2,-3.2373752E-2,7.005851E1,7.023E1,7.0328766E1,7.042446E1,7.0555E1,7.066E1,7.0755E1,7.0830894E1,7.096E1,7.1043816E1,7.11545E1,7.126922E1,7.141426E1,2.6818302E-2,7.169282E1,7.180459E1,7.1935E1,7.203393E1,7.217E1,5.3102415E-2,5.74973E-2,6.2257938E-2,6.6370085E-2,7.0812255E-2,7.626949E-2,8.182137E-2,8.7035686E-2,9.1536455E-2,9.6821986E-2,1.02152176E-1,1.0903425E-1,1.1460318E-1,1.2279487E-1,-2.906417E-2,-2.6476318E-2,-2.3363745E-2,-2.0936765E-2,-1.8886203E-2,-1.6919814E-2,-1.526957E-2,-1.3250289E-2,-1.0905231E-2,-9.256177E-3,7.062E1,7.068127E1,-3.4085705E-3,7.0762054E1,-1.7446933E-4,7.086061E1,7.091719E1,5.7155103E-3,7.101653E1,7.107191E1,7.112687E1,7.118051E1,7.1245E1,7.130082E1,2.0836296E-2,2.3565575E-2,3.0388627E-2,3.333273E-2,3.552107E-2,3.76416E-2,3.9525457E-2,4.1628335E-2,4.3794736E-2,4.5997962E-2,4.8130244E-2,5.0375503E-2,-8.055623E-3,-6.879996E-3,-5.5744634E-3,-4.544854E-3,-2.3015237E-3,-1.4251653E-3,1.1587183E-3,2.1640786E-3,3.2053043E-3,4.3410035E-3,7.007352E-3,7.925922E-3,8.970632E-3,9.998968E-3,1.0975557E-2,1.2048505E-2,1.301476E-2,1.403501E-2,1.5004839E-2,1.6058037E-2,1.7301874E-2,1.8753288E-2],"split_indices":[18,1,18,9,1,18,1,18,1,18,18,18,18,1,18,18,18,18,9,19,18,18,18,18,18,18,1,18,18,1,1,0,0,0,0,19,1,1,0,0,18,1,1,18,18,18,18,18,1,18,1,18,18,18,1,18,18,18,18,1,1,18,1,0,0,0,0,0,0,0,0,0,0,0,0,0,0,0,0,0,0,0,18,1,18,18,1,1,1,18,1,18,18,18,18,0,18,18,1,18,1,0,0,0,0,0,0,0,0,0,0,0,0,0,0,0,0,0,0,0,0,0,0,0,0,1,18,0,18,0,18,18,0,18,18,18,18,1,18,0,0,0,0,0,0,0,0,0,0,0,0,0,0,0,0,0,0,0,0,0,0,0,0,0,0,0,0,0,0,0,0,0,0],"split_type":[0,0,0,0,0,0,0,0,0,0,0,0,0,0,0,0,0,0,0,0,0,0,0,0,0,0,0,0,0,0,0,0,0,0,0,0,0,0,0,0,0,0,0,0,0,0,0,0,0,0,0,0,0,0,0,0,0,0,0,0,0,0,0,0,0,0,0,0,0,0,0,0,0,0,0,0,0,0,0,0,0,0,0,0,0,0,0,0,0,0,0,0,0,0,0,0,0,0,0,0,0,0,0,0,0,0,0,0,0,0,0,0,0,0,0,0,0,0,0,0,0,0,0,0,0,0,0,0,0,0,0,0,0,0,0,0,0,0,0,0,0,0,0,0,0,0,0,0,0,0,0,0,0,0,0,0,0,0,0,0,0,0,0,0,0,0,0,0,0,0,0,0,0],"sum_hessian":[8.5323E4,2.6072E4,5.9251E4,9.683E3,1.6389E4,3.2983E4,2.6268E4,1.973E3,7.71E3,6.673E3,9.716E3,1.4022E4,1.8961E4,1.4929E4,1.1339E4,9.89E2,9.84E2,3.334E3,4.376E3,2.668E3,4.005E3,5.055E3,4.661E3,5.35E3,8.672E3,1.4002E4,4.959E3,7.961E3,6.968E3,5.733E3,5.606E3,3.26E2,6.63E2,6.56E2,3.28E2,1.003E3,2.331E3,3.74E3,6.36E2,1.011E3,1.657E3,2.005E3,2E3,2.722E3,2.333E3,2.329E3,2.332E3,2.684E3,2.666E3,4.023E3,4.649E3,8.327E3,5.675E3,1.695E3,3.264E3,4.339E3,3.622E3,2.974E3,3.994E3,3.395E3,2.338E3,3.65E3,1.956E3,3.26E2,6.77E2,9.95E2,1.336E3,1.648E3,2.092E3,6.69E2,9.88E2,9.8E2,1.025E3,9.95E2,1.005E3,1.369E3,1.353E3,9.85E2,1.348E3,9.98E2,1.331E3,9.97E2,1.335E3,1.34E3,1.344E3,1.272E3,1.394E3,2.041E3,1.982E3,2.3E3,2.349E3,3.665E3,4.662E3,3.666E3,2.009E3,6.8E2,1.015E3,1.575E3,1.689E3,2E3,2.339E3,1.652E3,1.97E3,1.305E3,1.669E3,2.326E3,1.668E3,1.678E3,1.717E3,1.335E3,1.003E3,2.036E3,1.614E3,1.293E3,6.63E2,6.7E2,6.65E2,6.29E2,7.11E2,6.73E2,6.71E2,6.4E2,6.32E2,6.65E2,7.29E2,9.81E2,1.06E3,8.76E2,1.106E3,1.016E3,1.284E3,1.337E3,1.012E3,1.646E3,2.019E3,2.628E3,2.034E3,1.659E3,2.007E3,1.007E3,1.002E3,6.66E2,3.49E2,6.37E2,9.38E2,1.005E3,6.84E2,1.026E3,9.74E2,1.273E3,1.066E3,3.15E2,6.66E2,7.34E2,3.26E2,4.51E2,6.55E2,6.61E2,6.23E2,6.82E2,6.55E2,6.88E2,9.58E2,1.01E3,1.009E3,1.296E3,1.332E3,1.041E3,9.93E2,5.98E2,1.061E3,9.99E2,1.008E3],"tree_param":{"num_deleted":"0","num_feature":"25","num_nodes":"173","size_leaf_vector":"1"}},{"base_weights":[-3.2613007E-3,-2.1275563E0,9.291906E-1,-3.382914E0,-1.3802078E0,2.035906E-1,1.836128E0,-4.523739E0,-3.0877335E0,-1.8453125E0,-1.0553789E0,-1.5715401E-1,4.728898E-1,1.4397017E0,2.386811E0,-4.693767E0,-1.679845E-1,-3.3278573E0,-2.870546E0,-2.0868192E0,-1.6827307E0,-1.2554024E0,-8.080491E-1,-3.908724E-1,-1.5064716E-2,3.3089158E-1,8.3751446E-1,1.2254184E0,1.6767162E0,2.1295846E0,2.6306581E0,-2.0088673E-1,-1.8316658E-1,-3.5393224E0,-3.2056873E0,-2.9247527E0,-2.5857177E0,-2.1935854E0,-7.906661E-2,-1.7649213E0,-1.5643011E0,-1.3448284E0,-1.139899E0,-8.99069E-1,-7.0179635E-1,-4.9660236E-1,-3.08167E-1,-1.0207049E-1,6.989012E-2,2.563868E-1,4.422334E-1,6.6942364E-1,9.139034E-1,1.1392499E0,1.3411973E0,1.5870811E0,1.8040558E0,2.0476918E0,2.2691817E0,2.526952E0,2.820205E0,-1.5014067E-1,-1.3861018E-1,-1.314387E-1,-1.2585036E-1,-1.2005381E-1,-1.14058E-1,-1.07417315E-1,-9.906397E-2,-9.064211E-2,-8.492961E-2,-7.24635E-2,-6.7939945E-2,-6.416319E-2,-5.987132E-2,-5.553052E-2,-5.1693626E-2,-4.8107967E-2,-1.0926749E0,-3.8184687E-2,-8.5358495E-1,-2.9880947E-2,-6.532345E-1,-5.462992E-1,-4.560322E-1,-3.6583555E-1,-2.5398296E-1,-1.5163834E-1,-5.7299647E-2,2.8589932E-2,1.15250304E-1,2.0579246E-1,2.952887E-1,4.0044212E-1,5.1303726E-1,6.256361E-1,2.9193388E-2,8.467877E-1,9.518407E-1,1.0833316E0,1.1925585E0,5.1649794E-2,5.552588E-2,6.0648665E-2,6.589361E-2,7.008779E-2,7.487431E-2,7.901459E-2,8.38854E-2,8.846973E-2,9.297562E-2,9.8051615E-2,1.0459748E-1,1.1001625E-1,1.1813359E-1,-4.4890966E-2,-4.2396646E-2,-3.5203498E-2,-3.312398E-2,-2.6774153E-2,-2.4779638E-2,-2.3270657E-2,-2.1036847E-2,-1.9191043E-2,-1.734182E-2,-1.5473001E-2,-1.3845425E-2,-1.1507888E-2,-9.279053E-3,-1.748048E-1,-1.2637435E-1,-3.306037E-3,-3.9526206E-2,1.9229538E-4,4.862443E-2,3.699546E-3,1.357018E-1,1.8134843E-1,2.2649895E-1,2.7513427E-1,3.2169244E-1,3.7419075E-1,4.263242E-1,1.928613E-2,2.1634469E-2,2.4181452E-2,2.651134E-2,3.1944618E-2,3.4486134E-2,3.702843E-2,3.9464995E-2,4.1985974E-2,4.4351462E-2,4.6476535E-2,4.8629407E-2,-7.409011E-3,-6.213645E-3,-5.373462E-3,-4.450239E-3,-2.0209067E-3,-1.0086361E-3,1.5038108E-3,2.493367E-3,5.0206357E-3,5.9838616E-3,6.874543E-3,7.690862E-3,8.506239E-3,9.47774E-3,1.044111E-2,1.1449767E-2,1.2371805E-2,1.3324835E-2,1.4323029E-2,1.5416382E-2,1.6540308E-2,1.7665189E-2],"categories":[],"categories_nodes":[],"categories_segments":[],"categories_sizes":[],"default_left":[0,0,0,0,0,0,0,0,0,0,0,0,0,0,0,0,0,0,0,0,0,0,0,0,0,0,0,0,0,0,0,0,0,0,0,0,0,0,0,0,0,0,0,0,0,0,0,0,0,0,0,0,0,0,0,0,0,0,0,0,0,0,0,0,0,0,0,0,0,0,0,0,0,0,0,0,0,0,0,0,0,0,0,0,0,0,0,0,0,0,0,0,0,0,0,0,0,0,0,0,0,0,0,0,0,0,0,0,0,0,0,0,0,0,0,0,0,0,0,0,0,0,0,0,0,0,0,0,0,0,0,0,0,0,0,0,0,0,0,0,0,0,0,0,0,0,0,0,0,0,0,0,0,0,0,0,0,0,0,0,0,0,0,0,0,0,0,0,0,0,0,0,0,0,0,0,0],"id":3,"left_children":[1,3,5,7,9,11,13,15,17,19,21,23,25,27,29,31,-1,33,35,37,39,41,43,45,47,49,51,53,55,57,59,-1,-1,61,63,65,67,69,-1,71,73,75,77,79,81,83,85,87,89,91,93,95,97,99,101,103,105,107,109,111,113,-1,-1,-1,-1,-1,-1,-1,-1,-1,-1,-1,-1,-1,-1,-1,-1,-1,115,-1,117,-1,119,121,123,125,127,129,131,133,135,137,139,141,143,145,-1,147,149,151,153,-1,-1,-1,-1,-1,-1,-1,-1,-1,-1,-1,-1,-1,-1,-1,-1,-1,-1,-1,-1,-1,-1,-1,-1,-1,-1,-1,-1,155,157,-1,159,-1,161,-1,163,165,167,169,171,173,175,-1,-1,-1,-1,-1,-1,-1,-1,-1,-1,-1,-1,-1,-1,-1,-1,-1,-1,-1,-1,-1,-1,-1,-1,-1,-1,-1,-1,-1,-1,-1,-1,-1,-1],"loss_changes":[1.6958248E5,2.4497102E4,3.9153043E4,3.2676484E3,2.4715234E3,3.2112124E3,5.7694297E3,9.056641E1,3.943672E2,2.6077734E2,4.759922E2,4.6920242E2,9.796362E2,7.789668E2,6.885625E2,2.6076172E1,0E0,8.351953E1,5.5335938E1,2.746582E1,3.6447266E1,5.3510742E1,4.1090088E1,4.6559692E1,6.496417E1,1.1289636E2,6.7493164E1,7.908203E1,8.044922E1,5.698047E1,1.0446875E2,0E0,0E0,8.171875E0,8.1640625E-1,1.0615234E1,5.307617E-1,2.1420898E0,0E0,4.2700195E0,2.0546875E0,5.0410156E0,5.6018066E0,5.046875E0,3.8936157E0,4.4748535E0,9.2812195E0,9.627052E0,8.327644E0,1.6007751E1,1.5950562E1,3.9371338E0,8.472412E0,1.2536133E1,6.279297E0,1.5830078E1,7.2978516E0,8.045898E0,1.1513672E0,1.8082031E1,1.0454102E1,0E0,0E0,0E0,0E0,0E0,0E0,0E0,0E0,0E0,0E0,0E0,0E0,0E0,0E0,0E0,0E0,0E0,1.11694336E-1,0E0,1.3909912E-1,0E0,1.12976074E-1,4.5147705E-1,4.8397827E-1,4.660797E-1,1.0832672E0,1.1835785E0,1.0254064E0,1.1094683E0,9.738636E-1,1.7567749E0,2.3663025E0,2.1764526E0,1.4776001E0,3.5961914E-1,0E0,2.921753E-1,1.1953125E0,7.866211E-1,2.6733398E-1,0E0,0E0,0E0,0E0,0E0,0E0,0E0,0E0,0E0,0E0,0E0,0E0,0E0,0E0,0E0,0E0,0E0,0E0,0E0,0E0,0E0,0E0,0E0,0E0,0E0,0E0,0E0,0E0,1.8865204E-1,1.0410595E-1,0E0,2.1022153E-1,0E0,1.8878222E-1,0E0,1.3888931E-1,1.3624573E-1,2.2706604E-1,3.3636475E-1,1.7906189E-1,1.7202759E-1,1.555481E-1,0E0,0E0,0E0,0E0,0E0,0E0,0E0,0E0,0E0,0E0,0E0,0E0,0E0,0E0,0E0,0E0,0E0,0E0,0E0,0E0,0E0,0E0,0E0,0E0,0E0,0E0,0E0,0E0,0E0,0E0,0E0,0E0,0E0,0E0],"parents":[2147483647,0,0,1,1,2,2,3,3,4,4,5,5,6,6,7,7,8,8,9,9,10,10,11,11,12,12,13,13,14,14,15,15,17,17,18,18,19,19,20,20,21,21,22,22,23,23,24,24,25,25,26,26,27,27,28,28,29,29,30,30,33,33,34,34,35,35,36,36,37,37,39,39,40,40,41,41,42,42,43,43,44,44,45,45,46,46,47,47,48,48,49,49,50,50,51,51,52,52,53,53,54,54,55,55,56,56,57,57,58,58,59,59,60,60,78,78,80,80,82,82,83,83,84,84,85,85,86,86,87,87,88,88,89,89,90,90,91,91,92,92,93,93,94,94,95,95,97,97,98,98,99,99,100,100,129,129,130,130,132,132,134,134,136,136,137,137,138,138,139,139,140,140,141,141,142,142],"right_children":[2,4,6,8,10,12,14,16,18,20,22,24,26,28,30,32,-1,34,36,38,40,42,44,46,48,50,52,54,56,58,60,-1,-1,62,64,66,68,70,-1,72,74,76,78,80,82,84,86,88,90,92,94,96,98,100,102,104,106,108,110,112,114,-1,-1,-1,-1,-1,-1,-1,-1,-1,-1,-1,-1,-1,-1,-1,-1,-1,116,-1,118,-1,120,122,124,126,128,130,132,134,136,138,140,142,144,146,-1,148,150,152,154,-1,-1,-1,-1,-1,-1,-1,-1,-1,-1,-1,-1,-1,-1,-1,-1,-1,-1,-1,-1,-1,-1,-1,-1,-1,-1,-1,-1,156,158,-1,160,-1,162,-1,164,166,168,170,172,174,176,-1,-1,-1,-1,-1,-1,-1,-1,-1,-1,-1,-1,-1,-1,-1,-1,-1,-1,-1,-1,-1,-1,-1,-1,-1,-1,-1,-1,-1,-1,-1,-1,-1,-1],"split_conditions":[7.0135E1,6.81244E1,7.197E1,6.64096E1,6.916E1,7.0995E1,7.299E1,6.5785E1,6.7315E1,6.868E1,6.9665E1,7.0585E1,7.146E1,7.245E1,7.351E1,6.531658E1,-1.679845E-1,6.6995E1,6.766968E1,6.848E1,6.894E1,6.941E1,6.992E1,7.0355E1,7.079E1,7.121E1,7.1695E1,7.2225E1,7.274E1,7.326E1,7.3845E1,-2.0088673E-1,-1.8316658E-1,6.6705E1,6.7195E1,6.7515E1,6.789389E1,6.832E1,-7.906661E-2,6.884408E1,6.906761E1,6.9305E1,6.9515E1,6.979441E1,7.002388E1,7.025E1,7.045643E1,7.07E1,7.09E1,7.11E1,7.1332184E1,7.1595E1,7.183E1,7.2105E1,7.2335E1,7.2605E1,7.287E1,7.3115E1,7.337E1,7.3685E1,7.4065E1,-1.5014067E-1,-1.3861018E-1,-1.314387E-1,-1.2585036E-1,-1.2005381E-1,-1.14058E-1,-1.07417315E-1,-9.906397E-2,-9.064211E-2,-8.492961E-2,-7.24635E-2,-6.7939945E-2,-6.416319E-2,-5.987132E-2,-5.553052E-2,-5.1693626E-2,-4.8107967E-2,6.958E1,-3.8184687E-2,6.9845E1,-2.9880947E-2,7.0095E1,7.01789E1,7.03E1,7.04E1,7.052E1,7.065E1,7.0745E1,7.0845E1,7.0945E1,7.1045E1,7.1155E1,7.127E1,7.139E1,7.1545E1,2.9193388E-2,7.1745E1,7.19E1,7.2035E1,7.216E1,5.1649794E-2,5.552588E-2,6.0648665E-2,6.589361E-2,7.008779E-2,7.487431E-2,7.901459E-2,8.38854E-2,8.846973E-2,9.297562E-2,9.8051615E-2,1.0459748E-1,1.1001625E-1,1.1813359E-1,-4.4890966E-2,-4.2396646E-2,-3.5203498E-2,-3.312398E-2,-2.6774153E-2,-2.4779638E-2,-2.3270657E-2,-2.1036847E-2,-1.9191043E-2,-1.734182E-2,-1.5473001E-2,-1.3845425E-2,-1.1507888E-2,-9.279053E-3,7.063E1,7.068E1,-3.306037E-3,7.0775E1,1.9229538E-4,7.0875E1,3.699546E-3,7.0965E1,7.1025E1,7.107E1,7.1125E1,7.118E1,7.1235E1,7.13E1,1.928613E-2,2.1634469E-2,2.4181452E-2,2.651134E-2,3.1944618E-2,3.4486134E-2,3.702843E-2,3.9464995E-2,4.1985974E-2,4.4351462E-2,4.6476535E-2,4.8629407E-2,-7.409011E-3,-6.213645E-3,-5.373462E-3,-4.450239E-3,-2.0209067E-3,-1.0086361E-3,1.5038108E-3,2.493367E-3,5.0206357E-3,5.9838616E-3,6.874543E-3,7.690862E-3,8.506239E-3,9.47774E-3,1.044111E-2,1.1449767E-2,1.2371805E-2,1.3324835E-2,1.4323029E-2,1.5416382E-2,1.6540308E-2,1.7665189E-2],"split_indices":[3,20,3,18,2,3,3,3,3,3,3,3,2,3,3,19,0,2,18,3,3,3,3,3,2,3,3,3,3,3,3,0,0,3,3,3,18,2,0,18,18,3,3,18,18,3,18,3,3,3,18,3,3,3,3,3,3,3,2,3,3,0,0,0,0,0,0,0,0,0,0,0,0,0,0,0,0,0,3,0,3,0,3,18,3,3,3,3,3,3,3,3,3,3,3,3,0,3,3,3,3,0,0,0,0,0,0,0,0,0,0,0,0,0,0,0,0,0,0,0,0,0,0,0,0,0,0,0,0,3,3,0,3,0,3,0,2,3,3,3,3,3,3,0,0,0,0,0,0,0,0,0,0,0,0,0,0,0,0,0,0,0,0,0,0,0,0,0,0,0,0,0,0,0,0,0,0],"split_type":[0,0,0,0,0,0,0,0,0,0,0,0,0,0,0,0,0,0,0,0,0,0,0,0,0,0,0,0,0,0,0,0,0,0,0,0,0,0,0,0,0,0,0,0,0,0,0,0,0,0,0,0,0,0,0,0,0,0,0,0,0,0,0,0,0,0,0,0,0,0,0,0,0,0,0,0,0,0,0,0,0,0,0,0,0,0,0,0,0,0,0,0,0,0,0,0,0,0,0,0,0,0,0,0,0,0,0,0,0,0,0,0,0,0,0,0,0,0,0,0,0,0,0,0,0,0,0,0,0,0,0,0,0,0,0,0,0,0,0,0,0,0,0,0,0,0,0,0,0,0,0,0,0,0,0,0,0,0,0,0,0,0,0,0,0,0,0,0,0,0,0,0,0,0,0,0,0],"sum_hessian":[8.5611E4,2.6115E4,5.9496E4,9.744E3,1.6371E4,3.3053E4,2.6443E4,2E3,7.744E3,6.73E3,9.641E3,1.4128E4,1.8925E4,1.5377E4,1.1066E4,1.303E3,6.97E2,3.671E3,4.073E3,2.703E3,4.027E3,5.328E3,4.313E3,5.341E3,8.787E3,1.3622E4,5.303E3,8.079E3,7.298E3,5.39E3,5.676E3,3.26E2,9.77E2,1.334E3,2.337E3,3.414E3,6.59E2,1.363E3,1.34E3,2.369E3,1.658E3,2.997E3,2.331E3,2.319E3,1.994E3,2.342E3,2.999E3,4.341E3,4.446E3,8.163E3,5.459E3,1.66E3,3.643E3,4.638E3,3.441E3,4.291E3,3.007E3,3.407E3,1.983E3,3.678E3,1.998E3,3.3E2,1.004E3,9.71E2,1.366E3,1.65E3,1.764E3,3.32E2,3.27E2,6.56E2,7.07E2,1.376E3,9.93E2,1.029E3,6.29E2,1.626E3,1.371E3,9.9E2,1.341E3,1.035E3,1.284E3,1.025E3,9.69E2,1.047E3,1.295E3,1.45E3,1.549E3,2.059E3,2.282E3,2.328E3,2.118E3,3.551E3,4.612E3,3.437E3,2.022E3,9.69E2,6.91E2,1.324E3,2.319E3,2.274E3,2.364E3,1.681E3,1.76E3,1.984E3,2.307E3,1.719E3,1.288E3,1.4E3,2.007E3,9.92E2,9.91E2,1.993E3,1.685E3,1.325E3,6.73E2,6.87E2,6.54E2,6.13E2,6.71E2,6.43E2,3.26E2,3.72E2,6.75E2,6.2E2,6.75E2,6.93E2,7.57E2,6.07E2,9.42E2,1.071E3,9.88E2,9.39E2,1.343E3,1.065E3,1.263E3,1.005E3,1.113E3,1.633E3,1.918E3,2.622E3,1.99E3,1.714E3,1.723E3,9.67E2,1.055E3,6.29E2,3.4E2,3.33E2,9.91E2,1.34E3,9.79E2,9.97E2,1.277E3,1.04E3,1.324E3,6.92E2,3.79E2,6.42E2,3.46E2,7.58E2,5.85E2,7.02E2,5.61E2,6.48E2,4.65E2,8.83E2,7.5E2,8.34E2,1.084E3,1.166E3,1.456E3,9.68E2,1.022E3,7.17E2,9.97E2,9.53E2,7.7E2],"tree_param":{"num_deleted":"0","num_feature":"25","num_nodes":"177","size_leaf_vector":"1"}},{"base_weights":[-3.350968E-3,-2.042278E0,8.921062E-1,-3.2605426E0,-1.3231885E0,1.9803628E-1,1.7615496E0,-4.3521633E0,-2.967395E0,-1.773275E0,-1.0123211E0,-1.4334136E-1,4.5934016E-1,1.3719237E0,2.2805617E0,-4.574657E0,-4.1299796E0,-3.2164443E0,-2.7779596E0,-2.007251E0,-1.6156609E0,-1.2046052E0,-7.747118E-1,-3.6130893E-1,-7.920491E-4,3.2555932E-1,8.2011634E-1,1.1762276E0,1.5987006E0,2.0345771E0,2.5257077E0,-1.929445E-1,-1.7780367E-1,-1.6966398E-1,-1.5583082E-1,-3.440392E0,-3.117571E0,-2.8283997E0,-2.4943795E0,-8.572725E-2,-1.9204624E0,-1.6938583E0,-1.501109E0,-1.2808112E0,-1.0772996E0,-8.6406565E-1,-6.757181E-1,-4.520738E-1,-2.6024896E-1,-8.238445E-2,7.851394E-2,2.5321013E-1,4.392324E-1,6.817071E-1,8.898184E-1,1.086812E0,1.278308E0,1.486435E0,1.6825688E0,1.946543E0,2.1626647E0,2.4129086E0,2.687359E0,-1.4399809E-1,-1.3439094E-1,-1.282588E-1,-1.2189287E-1,-1.1733941E-1,-1.10578336E-1,-1.03436E-1,-9.5516555E-2,-7.860976E-2,-7.415554E-2,-7.021614E-2,-6.5894425E-2,-6.1788514E-2,-5.7598956E-2,-1.3227909E0,-4.8776686E-2,-4.4875517E-2,-4.121476E-2,-3.666815E-2,-8.2126427E-1,-7.214985E-1,-6.2896967E-1,-5.1199913E-1,-4.0411392E-1,-3.1982774E-1,-2.231565E-1,-1.3028105E-1,-4.2342488E-2,4.042367E-2,1.2219362E-1,2.0899197E-1,2.953887E-1,3.944713E-1,5.1054305E-1,6.3888186E-1,2.9758096E-2,8.455381E-1,9.2682165E-1,1.0336814E0,1.130821E0,4.884351E-2,1.3233004E0,5.7278983E-2,6.1088905E-2,6.51491E-2,7.018799E-2,7.541123E-2,8.021711E-2,8.362489E-2,8.85311E-2,9.359588E-2,9.943319E-2,1.0409759E-1,1.1185701E-1,-5.4160133E-2,-5.1636413E-2,-3.3400055E-2,-3.1100217E-2,-3.0058155E-2,-2.8036837E-2,-2.634275E-2,-2.4433794E-2,-2.1642482E-2,-1.9314637E-2,-1.703093E-2,-1.486221E-2,-1.3363001E-2,-1.1566985E-2,-2.4117942E-1,-7.767857E-3,-1.506161E-1,-4.3590437E-3,-2.6718723E-3,-2.4787143E-2,6.929482E-4,5.8303423E-2,1.0301013E-1,5.751606E-3,1.8344171E-1,2.3095351E-1,2.735105E-1,3.1925145E-1,1.4799465E-2,4.1800803E-1,1.9126043E-2,2.1678664E-2,2.3966594E-2,2.632577E-2,3.2695975E-2,3.4566052E-2,3.5958834E-2,3.7917122E-2,3.9919946E-2,4.2032618E-2,4.409799E-2,4.6163186E-2,5.1700987E-2,5.4260127E-2,-1.0544817E-2,-9.230647E-3,-6.732139E-3,-5.70922E-3,-1.4407375E-3,-5.091697E-4,1.9281874E-3,2.831571E-3,3.5633587E-3,4.442583E-3,6.909253E-3,7.806277E-3,8.631012E-3,9.619145E-3,1.0488089E-2,1.13405725E-2,1.2264613E-2,1.3305401E-2,1.6276222E-2,1.7466871E-2],"categories":[],"categories_nodes":[],"categories_segments":[],"categories_sizes":[],"default_left":[0,0,0,0,0,0,0,0,0,0,0,0,0,0,0,0,0,0,0,0,0,0,0,0,0,0,0,0,0,0,0,0,0,0,0,0,0,0,0,0,0,0,0,0,0,0,0,0,0,0,0,0,0,0,0,0,0,0,0,0,0,0,0,0,0,0,0,0,0,0,0,0,0,0,0,0,0,0,0,0,0,0,0,0,0,0,0,0,0,0,0,0,0,0,0,0,0,0,0,0,0,0,0,0,0,0,0,0,0,0,0,0,0,0,0,0,0,0,0,0,0,0,0,0,0,0,0,0,0,0,0,0,0,0,0,0,0,0,0,0,0,0,0,0,0,0,0,0,0,0,0,0,0,0,0,0,0,0,0,0,0,0,0,0,0,0,0,0,0,0,0,0,0,0,0,0,0,0,0,0,0],"id":4,"left_children":[1,3,5,7,9,11,13,15,17,19,21,23,25,27,29,31,33,35,37,39,41,43,45,47,49,51,53,55,57,59,61,-1,-1,-1,-1,63,65,67,69,-1,71,73,75,77,79,81,83,85,87,89,91,93,95,97,99,101,103,105,107,109,111,113,115,-1,-1,-1,-1,-1,-1,-1,-1,-1,-1,-1,-1,-1,-1,117,-1,-1,-1,-1,119,121,123,125,127,129,131,133,135,137,139,141,143,145,147,149,-1,151,153,155,157,-1,159,-1,-1,-1,-1,-1,-1,-1,-1,-1,-1,-1,-1,-1,-1,-1,-1,-1,-1,-1,-1,-1,-1,-1,-1,-1,-1,161,-1,163,-1,-1,165,-1,167,169,-1,171,173,175,177,-1,179,-1,-1,-1,-1,-1,-1,-1,-1,-1,-1,-1,-1,-1,-1,-1,-1,-1,-1,-1,-1,-1,-1,-1,-1,-1,-1,-1,-1,-1,-1,-1,-1,-1,-1],"loss_changes":[1.5596473E5,2.2832336E4,3.5818305E4,3.0831406E3,2.2920078E3,2.9444883E3,5.3251797E3,8.225391E1,3.5103906E2,2.436914E2,4.4219922E2,4.4468964E2,9.021426E2,6.661621E2,6.7608984E2,1.1236328E1,1.0503906E1,6.2125E1,5.5035156E1,2.7628906E1,3.3341797E1,5.061035E1,3.7814453E1,5.179065E1,5.6004482E1,1.1207446E2,4.8180176E1,7.239746E1,6.3125E1,5.943164E1,9.6609375E1,0E0,0E0,0E0,0E0,7.421875E-1,4.548828E0,1.6603516E1,2.9492188E-1,0E0,1.2817383E0,3.8989258E0,2.1313477E0,7.0131836E0,3.0563965E0,4.3793945E0,3.963501E0,8.357666E0,5.851227E0,8.17613E0,7.297352E0,1.5489136E1,1.6728638E1,4.0509644E0,4.7216797E0,8.92334E0,8.087402E0,4.4526367E0,1.2606445E1,8.322266E0,3.7236328E0,1.1966797E1,1.41640625E1,0E0,0E0,0E0,0E0,0E0,0E0,0E0,0E0,0E0,0E0,0E0,0E0,0E0,0E0,2.1850586E-1,0E0,0E0,0E0,0E0,1.11816406E-1,1.1193848E-1,1.4974976E-1,8.5717773E-1,1.0124512E0,3.5147858E-1,8.169861E-1,8.249359E-1,9.964762E-1,9.679389E-1,8.3201027E-1,2.243637E0,2.1393433E0,1.725769E0,1.819397E0,3.8061523E-1,0E0,1.0070801E-1,2.1765137E-1,1.5405273E-1,2.783203E-1,0E0,3.90625E-1,0E0,0E0,0E0,0E0,0E0,0E0,0E0,0E0,0E0,0E0,0E0,0E0,0E0,0E0,0E0,0E0,0E0,0E0,0E0,0E0,0E0,0E0,0E0,0E0,0E0,0E0,1.7658615E-1,0E0,1.1419678E-1,0E0,0E0,1.8304354E-1,0E0,1.6328049E-1,1.1192036E-1,0E0,2.0318985E-1,2.6428986E-1,1.7816162E-1,2.4198914E-1,0E0,1.6546631E-1,0E0,0E0,0E0,0E0,0E0,0E0,0E0,0E0,0E0,0E0,0E0,0E0,0E0,0E0,0E0,0E0,0E0,0E0,0E0,0E0,0E0,0E0,0E0,0E0,0E0,0E0,0E0,0E0,0E0,0E0,0E0,0E0,0E0,0E0],"parents":[2147483647,0,0,1,1,2,2,3,3,4,4,5,5,6,6,7,7,8,8,9,9,10,10,11,11,12,12,13,13,14,14,15,15,16,16,17,17,18,18,19,19,20,20,21,21,22,22,23,23,24,24,25,25,26,26,27,27,28,28,29,29,30,30,35,35,36,36,37,37,38,38,40,40,41,41,42,42,43,43,44,44,45,45,46,46,47,47,48,48,49,49,50,50,51,51,52,52,53,53,54,54,55,55,56,56,57,57,58,58,59,59,60,60,61,61,62,62,77,77,82,82,83,83,84,84,85,85,86,86,87,87,88,88,89,89,90,90,91,91,92,92,93,93,94,94,95,95,96,96,97,97,99,99,100,100,101,101,102,102,104,104,131,131,133,133,136,136,138,138,139,139,141,141,142,142,143,143,144,144,146,146],"right_children":[2,4,6,8,10,12,14,16,18,20,22,24,26,28,30,32,34,36,38,40,42,44,46,48,50,52,54,56,58,60,62,-1,-1,-1,-1,64,66,68,70,-1,72,74,76,78,80,82,84,86,88,90,92,94,96,98,100,102,104,106,108,110,112,114,116,-1,-1,-1,-1,-1,-1,-1,-1,-1,-1,-1,-1,-1,-1,118,-1,-1,-1,-1,120,122,124,126,128,130,132,134,136,138,140,142,144,146,148,150,-1,152,154,156,158,-1,160,-1,-1,-1,-1,-1,-1,-1,-1,-1,-1,-1,-1,-1,-1,-1,-1,-1,-1,-1,-1,-1,-1,-1,-1,-1,-1,162,-1,164,-1,-1,166,-1,168,170,-1,172,174,176,178,-1,180,-1,-1,-1,-1,-1,-1,-1,-1,-1,-1,-1,-1,-1,-1,-1,-1,-1,-1,-1,-1,-1,-1,-1,-1,-1,-1,-1,-1,-1,-1,-1,-1,-1,-1],"split_conditions":[7.0135E1,6.812E1,7.1955E1,6.6395E1,6.916E1,7.1005E1,7.295E1,6.569E1,6.7275E1,6.8695E1,6.9675E1,7.061E1,7.15E1,7.2446884E1,7.3495E1,6.5315E1,6.603E1,6.6935E1,6.7665E1,6.84E1,6.894E1,6.944E1,6.9925E1,7.04E1,7.0815E1,7.1225E1,7.1745E1,7.2195E1,7.268E1,7.3225E1,7.3816795E1,-1.929445E-1,-1.7780367E-1,-1.6966398E-1,-1.5583082E-1,6.6704315E1,6.7135E1,6.745E1,6.7875E1,-8.572725E-2,6.858E1,6.881E1,6.9065E1,6.933E1,6.95502E1,6.9795E1,7.001E1,7.0275E1,7.048E1,7.0715E1,7.0915E1,7.111173E1,7.135E1,7.164E1,7.186E1,7.209E1,7.231E1,7.255E1,7.2805E1,7.3115E1,7.334E1,7.3645E1,7.396E1,-1.4399809E-1,-1.3439094E-1,-1.282588E-1,-1.2189287E-1,-1.1733941E-1,-1.10578336E-1,-1.03436E-1,-9.5516555E-2,-7.860976E-2,-7.415554E-2,-7.021614E-2,-6.5894425E-2,-6.1788514E-2,-5.7598956E-2,6.9265E1,-4.8776686E-2,-4.4875517E-2,-4.121476E-2,-3.666815E-2,6.9875E1,6.995212E1,7.005851E1,7.022E1,7.0355E1,7.0455E1,7.0555E1,7.0665E1,7.076E1,7.086E1,7.0965E1,7.106E1,7.1165E1,7.128E1,7.1415E1,7.1555E1,2.9758096E-2,7.1805E1,7.19E1,7.2015E1,7.213E1,4.884351E-2,7.2375E1,5.7278983E-2,6.1088905E-2,6.51491E-2,7.018799E-2,7.541123E-2,8.021711E-2,8.362489E-2,8.85311E-2,9.359588E-2,9.943319E-2,1.0409759E-1,1.1185701E-1,-5.4160133E-2,-5.1636413E-2,-3.3400055E-2,-3.1100217E-2,-3.0058155E-2,-2.8036837E-2,-2.634275E-2,-2.4433794E-2,-2.1642482E-2,-1.9314637E-2,-1.703093E-2,-1.486221E-2,-1.3363001E-2,-1.1566985E-2,7.052E1,-7.767857E-3,7.063E1,-4.3590437E-3,-2.6718723E-3,7.079E1,6.929482E-4,7.089E1,7.092E1,5.751606E-3,7.1035E1,7.108114E1,7.114E1,7.1190895E1,1.4799465E-2,7.132E1,1.9126043E-2,2.1678664E-2,2.3966594E-2,2.632577E-2,3.2695975E-2,3.4566052E-2,3.5958834E-2,3.7917122E-2,3.9919946E-2,4.2032618E-2,4.409799E-2,4.6163186E-2,5.1700987E-2,5.4260127E-2,-1.0544817E-2,-9.230647E-3,-6.732139E-3,-5.70922E-3,-1.4407375E-3,-5.091697E-4,1.9281874E-3,2.831571E-3,3.5633587E-3,4.442583E-3,6.909253E-3,7.806277E-3,8.631012E-3,9.619145E-3,1.0488089E-2,1.13405725E-2,1.2264613E-2,1.3305401E-2,1.6276222E-2,1.7466871E-2],"split_indices":[3,0,2,2,2,3,2,3,2,1,1,3,3,18,2,3,3,2,2,2,3,3,1,3,3,3,3,2,3,2,18,0,0,0,0,20,3,3,2,0,3,3,3,3,18,3,2,3,2,3,3,18,3,3,3,3,3,3,3,3,3,3,2,0,0,0,0,0,0,0,0,0,0,0,0,0,0,3,0,0,0,0,3,18,18,3,3,3,2,3,3,3,3,3,3,3,3,1,0,3,3,3,2,0,3,0,0,0,0,0,0,0,0,0,0,0,0,0,0,0,0,0,0,0,0,0,0,0,0,0,0,3,0,3,0,0,3,0,3,2,0,3,18,3,18,0,3,0,0,0,0,0,0,0,0,0,0,0,0,0,0,0,0,0,0,0,0,0,0,0,0,0,0,0,0,0,0,0,0,0,0],"split_type":[0,0,0,0,0,0,0,0,0,0,0,0,0,0,0,0,0,0,0,0,0,0,0,0,0,0,0,0,0,0,0,0,0,0,0,0,0,0,0,0,0,0,0,0,0,0,0,0,0,0,0,0,0,0,0,0,0,0,0,0,0,0,0,0,0,0,0,0,0,0,0,0,0,0,0,0,0,0,0,0,0,0,0,0,0,0,0,0,0,0,0,0,0,0,0,0,0,0,0,0,0,0,0,0,0,0,0,0,0,0,0,0,0,0,0,0,0,0,0,0,0,0,0,0,0,0,0,0,0,0,0,0,0,0,0,0,0,0,0,0,0,0,0,0,0,0,0,0,0,0,0,0,0,0,0,0,0,0,0,0,0,0,0,0,0,0,0,0,0,0,0,0,0,0,0,0,0,0,0,0,0],"sum_hessian":[8.5422E4,2.6067E4,5.9355E4,9.674E3,1.6393E4,3.3007E4,2.6348E4,2.045E3,7.629E3,6.695E3,9.698E3,1.4311E4,1.8696E4,1.5052E4,1.1296E4,1.012E3,1.033E3,3.289E3,4.34E3,2.69E3,4.005E3,5.358E3,4.34E3,5.658E3,8.653E3,1.364E4,5.056E3,8.083E3,6.969E3,5.643E3,5.653E3,3.34E2,6.78E2,6.88E2,3.45E2,9.97E2,2.292E3,3.677E3,6.63E2,1.039E3,1.651E3,2.372E3,1.633E3,3.346E3,2.012E3,2.277E3,2.063E3,2.979E3,2.679E3,4.265E3,4.388E3,8.337E3,5.303E3,1.697E3,3.359E3,4.315E3,3.768E3,2.988E3,3.981E3,3.354E3,2.289E3,3.339E3,2.314E3,3.2E2,6.77E2,9.92E2,1.3E3,1.374E3,2.303E3,3.44E2,3.19E2,9.7E2,6.81E2,1.005E3,1.367E3,9.39E2,6.94E2,1.975E3,1.371E3,1.02E3,9.92E2,1.012E3,1.265E3,1.035E3,1.028E3,1.32E3,1.659E3,1.025E3,1.654E3,1.941E3,2.324E3,2.345E3,2.043E3,4.073E3,4.264E3,3.262E3,2.041E3,1.012E3,6.85E2,1.54E3,1.819E3,1.966E3,2.349E3,1.671E3,2.097E3,1.295E3,1.693E3,2.293E3,1.688E3,1.66E3,1.694E3,9.62E2,1.327E3,1.685E3,1.654E3,1.315E3,9.99E2,9.77E2,9.98E2,9.49E2,3.16E2,4.07E2,6.28E2,3.77E2,6.51E2,6.52E2,6.68E2,9.89E2,6.7E2,6.93E2,3.32E2,1.015E3,6.39E2,9.9E2,9.51E2,9.7E2,1.354E3,1.024E3,1.321E3,1.085E3,9.58E2,1.887E3,2.186E3,2.231E3,2.033E3,1.607E3,1.655E3,1.013E3,1.028E3,3.41E2,6.71E2,6.31E2,9.09E2,8.03E2,1.016E3,6.57E2,1.309E3,1.08E3,1.269E3,1.109E3,9.88E2,3.14E2,7.01E2,2.99E2,6.91E2,7E2,6.54E2,7.33E2,5.88E2,4.02E2,6.83E2,9.94E2,8.93E2,8.52E2,1.334E3,1.06E3,1.171E3,1.058E3,9.75E2,1.052E3,6.03E2],"tree_param":{"num_deleted":"0","num_feature":"25","num_nodes":"181","size_leaf_vector":"1"}},{"base_weights":[-1.1384883E-3,-1.9617877E0,8.564741E-1,-3.1262836E0,-1.2690532E0,1.892835E-1,1.6917722E0,-4.1883826E0,-2.847994E0,-1.6823124E0,-9.611664E-1,-1.4527777E-1,4.341722E-1,1.3272394E0,2.2008035E0,-1.7977974E-1,-4.0312757E0,-3.0511937E0,-2.6271384E0,-1.9031622E0,-1.5177907E0,-1.1467974E0,-7.4420804E-1,-3.5846847E-1,-1.5857162E-2,3.0229512E-1,7.7424425E-1,1.1371782E0,1.5541775E0,1.9779603E0,2.4401944E0,-1.648802E-1,-1.4991465E-1,-3.2653966E0,-2.9427025E0,-2.6814125E0,-9.535796E-2,-2.0243979E0,-1.8030593E0,-1.5985212E0,-1.4041077E0,-1.2206545E0,-1.0354412E0,-8.2686234E-1,-6.466357E-1,-4.481258E-1,-2.7390236E-1,-9.4092116E-2,6.276115E-2,2.3421563E-1,4.0691394E-1,6.1587304E-1,8.4366494E-1,1.0501721E0,1.2453203E0,1.4704474E0,1.6635507E0,1.8884252E0,2.1078525E0,2.341121E0,2.5975816E0,-1.3822474E-1,-1.2768807E-1,-1.21121384E-1,-1.15535945E-1,-1.0941267E-1,-1.04574755E-1,-8.3823726E-2,-7.830483E-2,-7.37468E-2,-6.965792E-2,-6.619821E-2,-6.221767E-2,-5.780329E-2,-5.36427E-2,-5.0317008E-2,-4.676054E-2,-4.3180294E-2,-3.9681662E-2,-3.5161477E-2,-7.8895795E-1,-2.7590126E-2,-6.0394865E-1,-4.9306828E-1,-4.0106815E-1,-3.1699684E-1,-2.2472183E-1,-1.3990366E-1,-5.286065E-2,2.666619E-2,1.04394525E-1,1.8836638E-1,2.7293098E-1,3.6909407E-1,4.724666E-1,5.775272E-1,2.687113E-2,7.809522E-1,8.789188E-1,1.0004786E0,4.398935E-2,1.2012246E0,5.197378E-2,5.6619603E-2,6.1041124E-2,6.455105E-2,6.8997435E-2,7.3290646E-2,7.77374E-2,8.233285E-2,8.694046E-2,9.079069E-2,9.6427694E-2,1.0134319E-1,1.08761124E-1,-3.2531258E-2,-3.0521141E-2,-2.4856245E-2,-2.2892691E-2,-2.1490203E-2,-1.9024448E-2,-1.6883444E-2,-1.513172E-2,-1.3594147E-2,-1.16927335E-2,-9.648373E-3,-8.299307E-3,-1.6254719E-1,-4.658121E-3,-3.0407144E-3,-3.623806E-2,1.7967529E-4,4.4978283E-2,8.631068E-2,4.943955E-3,1.6446543E-1,2.0848392E-1,2.5349468E-1,2.9647034E-1,1.3623025E-2,3.8891232E-1,1.7736416E-2,1.9945633E-2,2.2352291E-2,2.44129E-2,2.9561292E-2,3.1801604E-2,3.4126595E-2,3.6403198E-2,3.8955297E-2,4.1234635E-2,4.6831325E-2,4.9085643E-2,-7.1834037E-3,-6.108116E-3,-1.8464351E-3,-9.846439E-4,1.3098159E-3,2.2164253E-3,3.1349445E-3,3.9827684E-3,6.1246203E-3,6.9103884E-3,7.8448355E-3,8.764382E-3,9.660346E-3,1.0589276E-2,1.1346946E-2,1.2291635E-2,1.5142939E-2,1.637761E-2],"categories":[],"categories_nodes":[],"categories_segments":[],"categories_sizes":[],"default_left":[0,0,0,0,0,0,0,0,0,0,0,0,0,0,0,0,0,0,0,0,0,0,0,0,0,0,0,0,0,0,0,0,0,0,0,0,0,0,0,0,0,0,0,0,0,0,0,0,0,0,0,0,0,0,0,0,0,0,0,0,0,0,0,0,0,0,0,0,0,0,0,0,0,0,0,0,0,0,0,0,0,0,0,0,0,0,0,0,0,0,0,0,0,0,0,0,0,0,0,0,0,0,0,0,0,0,0,0,0,0,0,0,0,0,0,0,0,0,0,0,0,0,0,0,0,0,0,0,0,0,0,0,0,0,0,0,0,0,0,0,0,0,0,0,0,0,0,0,0,0,0,0,0,0,0,0,0,0,0,0,0,0,0,0,0,0,0,0,0,0,0],"id":5,"left_children":[1,3,5,7,9,11,13,15,17,19,21,23,25,27,29,-1,31,33,35,37,39,41,43,45,47,49,51,53,55,57,59,-1,-1,61,63,65,-1,67,69,71,73,75,77,79,81,83,85,87,89,91,93,95,97,99,101,103,105,107,109,111,113,-1,-1,-1,-1,-1,-1,-1,-1,-1,-1,-1,-1,-1,-1,-1,-1,-1,-1,-1,115,-1,117,119,121,123,125,127,129,131,133,135,137,139,141,143,-1,145,147,149,-1,151,-1,-1,-1,-1,-1,-1,-1,-1,-1,-1,-1,-1,-1,-1,-1,-1,-1,-1,-1,-1,-1,-1,-1,-1,-1,153,-1,-1,155,-1,157,159,-1,161,163,165,167,-1,169,-1,-1,-1,-1,-1,-1,-1,-1,-1,-1,-1,-1,-1,-1,-1,-1,-1,-1,-1,-1,-1,-1,-1,-1,-1,-1,-1,-1,-1,-1],"loss_changes":[1.4336781E5,2.0926312E4,3.305724E4,2.8483125E3,2.0685273E3,2.7019595E3,4.8846875E3,7.840234E1,3.3623828E2,2.4945703E2,3.7474316E2,3.8456143E2,8.537112E2,6.6035547E2,5.814531E2,0E0,1.8904297E1,8.309375E1,4.2216797E1,3.2285156E1,3.432715E1,4.0056152E1,3.416797E1,3.9796387E1,5.3357082E1,9.7638306E1,5.7969727E1,7.733301E1,6.1603516E1,6.227539E1,7.646484E1,0E0,0E0,7.515625E0,3.5683594E0,3.703125E0,0E0,2.225586E0,8.701172E-1,3.0732422E0,2.357666E0,4.3325195E0,2.7731934E0,3.9064941E0,3.22406E0,5.2036133E0,5.6766205E0,8.2054405E0,6.4996395E0,1.4708313E1,1.3233093E1,3.095581E0,7.4848633E0,1.0322266E1,7.3032227E0,9.966797E0,6.4589844E0,6.8876953E0,3.0566406E0,1.0707031E1,8.935547E0,0E0,0E0,0E0,0E0,0E0,0E0,0E0,0E0,0E0,0E0,0E0,0E0,0E0,0E0,0E0,0E0,0E0,0E0,0E0,2.3522949E-1,0E0,1.9769287E-1,7.487793E-1,4.401245E-1,7.145996E-1,3.1092834E-1,1.0744133E0,8.7874174E-1,9.414464E-1,6.870346E-1,1.7976532E0,1.9864502E0,1.8083801E0,1.2809143E0,2.5506592E-1,0E0,2.0318604E-1,1.1158447E0,8.76709E-1,0E0,1.9018555E-1,0E0,0E0,0E0,0E0,0E0,0E0,0E0,0E0,0E0,0E0,0E0,0E0,0E0,0E0,0E0,0E0,0E0,0E0,0E0,0E0,0E0,0E0,0E0,0E0,0E0,1.4785004E-1,0E0,0E0,1.5281928E-1,0E0,1.602602E-1,1.01428986E-1,0E0,1.3791275E-1,2.28302E-1,2.694397E-1,1.9419861E-1,0E0,2.7349854E-1,0E0,0E0,0E0,0E0,0E0,0E0,0E0,0E0,0E0,0E0,0E0,0E0,0E0,0E0,0E0,0E0,0E0,0E0,0E0,0E0,0E0,0E0,0E0,0E0,0E0,0E0,0E0,0E0,0E0,0E0],"parents":[2147483647,0,0,1,1,2,2,3,3,4,4,5,5,6,6,7,7,8,8,9,9,10,10,11,11,12,12,13,13,14,14,16,16,17,17,18,18,19,19,20,20,21,21,22,22,23,23,24,24,25,25,26,26,27,27,28,28,29,29,30,30,33,33,34,34,35,35,37,37,38,38,39,39,40,40,41,41,42,42,43,43,44,44,45,45,46,46,47,47,48,48,49,49,50,50,51,51,52,52,53,53,54,54,55,55,56,56,57,57,58,58,59,59,60,60,80,80,82,82,83,83,84,84,85,85,86,86,87,87,88,88,89,89,90,90,91,91,92,92,93,93,94,94,95,95,97,97,98,98,99,99,101,101,127,127,130,130,132,132,133,133,135,135,136,136,137,137,138,138,140,140],"right_children":[2,4,6,8,10,12,14,16,18,20,22,24,26,28,30,-1,32,34,36,38,40,42,44,46,48,50,52,54,56,58,60,-1,-1,62,64,66,-1,68,70,72,74,76,78,80,82,84,86,88,90,92,94,96,98,100,102,104,106,108,110,112,114,-1,-1,-1,-1,-1,-1,-1,-1,-1,-1,-1,-1,-1,-1,-1,-1,-1,-1,-1,116,-1,118,120,122,124,126,128,130,132,134,136,138,140,142,144,-1,146,148,150,-1,152,-1,-1,-1,-1,-1,-1,-1,-1,-1,-1,-1,-1,-1,-1,-1,-1,-1,-1,-1,-1,-1,-1,-1,-1,-1,154,-1,-1,156,-1,158,160,-1,162,164,166,168,-1,170,-1,-1,-1,-1,-1,-1,-1,-1,-1,-1,-1,-1,-1,-1,-1,-1,-1,-1,-1,-1,-1,-1,-1,-1,-1,-1,-1,-1,-1,-1],"split_conditions":[7.0145E1,6.812E1,7.1985E1,6.6395E1,6.9225E1,7.1E1,7.3005E1,6.558E1,6.7365E1,6.874E1,6.9665E1,7.0595E1,7.148E1,7.247E1,7.355E1,-1.7977974E-1,6.603E1,6.702E1,6.7665E1,6.849E1,6.898E1,6.9425E1,6.991E1,7.0385E1,7.079E1,7.122E1,7.168E1,7.224E1,7.275E1,7.325E1,7.3835E1,-1.648802E-1,-1.4991465E-1,6.667E1,6.7185E1,6.7555E1,-9.535796E-2,6.835E1,6.864E1,6.8855E1,6.913E1,6.9345E1,6.956E1,6.9805E1,7.001E1,7.026E1,7.048E1,7.069E1,7.091E1,7.109E1,7.1325E1,7.1605E1,7.184E1,7.212E1,7.237E1,7.264E1,7.287E1,7.313E1,7.341E1,7.367E1,7.405E1,-1.3822474E-1,-1.2768807E-1,-1.21121384E-1,-1.15535945E-1,-1.0941267E-1,-1.04574755E-1,-8.3823726E-2,-7.830483E-2,-7.37468E-2,-6.965792E-2,-6.619821E-2,-6.221767E-2,-5.780329E-2,-5.36427E-2,-5.0317008E-2,-4.676054E-2,-4.3180294E-2,-3.9681662E-2,-3.5161477E-2,6.9855E1,-2.7590126E-2,7.008E1,7.0177666E1,7.0335E1,7.0435E1,7.0555E1,7.066E1,7.0755E1,7.0835E1,7.0935E1,7.1035E1,7.1165E1,7.125E1,7.14E1,7.1535E1,2.687113E-2,7.176E1,7.191E1,7.204E1,4.398935E-2,7.227E1,5.197378E-2,5.6619603E-2,6.1041124E-2,6.455105E-2,6.8997435E-2,7.3290646E-2,7.77374E-2,8.233285E-2,8.694046E-2,9.079069E-2,9.6427694E-2,1.0134319E-1,1.08761124E-1,-3.2531258E-2,-3.0521141E-2,-2.4856245E-2,-2.2892691E-2,-2.1490203E-2,-1.9024448E-2,-1.6883444E-2,-1.513172E-2,-1.3594147E-2,-1.16927335E-2,-9.648373E-3,-8.299307E-3,7.062E1,-4.658121E-3,-3.0407144E-3,7.0765E1,1.7967529E-4,7.086E1,7.094E1,4.943955E-3,7.1025E1,7.108E1,7.1135E1,7.117E1,1.3623025E-2,7.1315E1,1.7736416E-2,1.9945633E-2,2.2352291E-2,2.44129E-2,2.9561292E-2,3.1801604E-2,3.4126595E-2,3.6403198E-2,3.8955297E-2,4.1234635E-2,4.6831325E-2,4.9085643E-2,-7.1834037E-3,-6.108116E-3,-1.8464351E-3,-9.846439E-4,1.3098159E-3,2.2164253E-3,3.1349445E-3,3.9827684E-3,6.1246203E-3,6.9103884E-3,7.8448355E-3,8.764382E-3,9.660346E-3,1.0589276E-2,1.1346946E-2,1.2291635E-2,1.5142939E-2,1.637761E-2],"split_indices":[1,16,1,2,1,1,1,2,1,1,0,1,1,2,1,0,15,1,2,1,1,2,2,1,2,1,2,1,1,2,2,0,0,9,2,1,0,1,1,1,1,1,1,1,2,2,2,2,1,2,2,1,1,1,1,1,0,2,2,2,2,0,0,0,0,0,0,0,0,0,0,0,0,0,0,0,0,0,0,0,1,0,2,19,1,1,1,1,1,2,2,2,1,2,1,2,0,1,1,2,0,2,0,0,0,0,0,0,0,0,0,0,0,0,0,0,0,0,0,0,0,0,0,0,0,0,0,1,0,0,2,0,2,1,0,1,1,1,2,0,1,0,0,0,0,0,0,0,0,0,0,0,0,0,0,0,0,0,0,0,0,0,0,0,0,0,0,0,0,0,0],"split_type":[0,0,0,0,0,0,0,0,0,0,0,0,0,0,0,0,0,0,0,0,0,0,0,0,0,0,0,0,0,0,0,0,0,0,0,0,0,0,0,0,0,0,0,0,0,0,0,0,0,0,0,0,0,0,0,0,0,0,0,0,0,0,0,0,0,0,0,0,0,0,0,0,0,0,0,0,0,0,0,0,0,0,0,0,0,0,0,0,0,0,0,0,0,0,0,0,0,0,0,0,0,0,0,0,0,0,0,0,0,0,0,0,0,0,0,0,0,0,0,0,0,0,0,0,0,0,0,0,0,0,0,0,0,0,0,0,0,0,0,0,0,0,0,0,0,0,0,0,0,0,0,0,0,0,0,0,0,0,0,0,0,0,0,0,0,0,0,0,0,0,0],"sum_hessian":[8.5261E4,2.5945E4,5.9316E4,9.676E3,1.6269E4,3.2977E4,2.6339E4,2.006E3,7.67E3,6.944E3,9.325E3,1.3937E4,1.904E4,1.535E4,1.0989E4,6.71E2,1.335E3,3.988E3,3.682E3,2.96E3,3.984E3,5.023E3,4.302E3,5.264E3,8.673E3,1.3721E4,5.319E3,8.357E3,6.993E3,5.696E3,5.293E3,1.001E3,3.34E2,1.331E3,2.657E3,3.002E3,6.8E2,1.33E3,1.63E3,2.322E3,1.662E3,3.014E3,2.009E3,2.325E3,1.977E3,2.553E3,2.711E3,4.347E3,4.326E3,8.314E3,5.407E3,1.624E3,3.695E3,4.637E3,3.72E3,3.969E3,3.024E3,3.381E3,2.315E3,3.258E3,2.035E3,3.57E2,9.74E2,1.012E3,1.645E3,1.642E3,1.36E3,6.29E2,7.01E2,9.65E2,6.65E2,9.89E2,1.333E3,9.94E2,6.68E2,1.737E3,1.277E3,9.85E2,1.024E3,9.69E2,1.356E3,9.76E2,1.001E3,1.301E3,1.252E3,1.442E3,1.269E3,2.058E3,2.289E3,2.318E3,2.008E3,3.809E3,4.505E3,3.433E3,1.974E3,9.7E2,6.54E2,1.338E3,2.357E3,2.326E3,2.311E3,2.061E3,1.659E3,2.009E3,1.96E3,1.685E3,1.339E3,1.69E3,1.691E3,1.338E3,9.77E2,1.625E3,1.633E3,1.347E3,6.88E2,6.84E2,6.72E2,6.33E2,3.68E2,3.6E2,9.41E2,6.42E2,6.1E2,7.42E2,7E2,6.42E2,6.27E2,1.044E3,1.014E3,9.55E2,1.334E3,1.049E3,1.269E3,1.037E3,9.71E2,1.745E3,2.064E3,2.474E3,2.031E3,1.415E3,2.018E3,9.44E2,1.03E3,6.29E2,3.41E2,3.5E2,9.88E2,1.306E3,1.051E3,1.258E3,1.068E3,9.69E2,1.092E3,3.76E2,6.68E2,7.18E2,6.16E2,5.86E2,6.83E2,6.53E2,3.84E2,7.45E2,1E3,9.63E2,1.101E3,1.208E3,1.266E3,9.43E2,1.088E3,1.355E3,6.63E2],"tree_param":{"num_deleted":"0","num_feature":"25","num_nodes":"171","size_leaf_vector":"1"}},{"base_weights":[4.2418184E-4,-1.8867892E0,8.25636E-1,-2.9960885E0,-1.2197078E0,1.81968E-1,1.6242069E0,-4.01063E0,-2.7311516E0,-1.6142149E0,-9.2000556E-1,-1.3918254E-1,4.1815743E-1,1.2657897E0,2.101616E0,-4.217917E0,-3.8053024E0,-2.9263918E0,-2.5212924E0,-1.8288078E0,-1.4567019E0,-1.0966144E0,-7.1376604E-1,-3.4405217E-1,-1.2915029E-2,2.9187134E-1,7.3975426E-1,1.0846087E0,1.4740001E0,1.8618376E0,2.3174338E0,-1.7814857E-1,-1.6381086E-1,-1.5651709E-1,-1.4376663E-1,-3.1342099E0,-2.82552E0,-2.5712624E0,-2.2852635E0,-1.9431529E0,-1.7318962E0,-1.5344753E0,-1.3446459E0,-1.1671005E0,-9.912015E-1,-7.938924E-1,-6.194142E-1,-4.2666358E-1,-2.5948212E-1,-8.790285E-2,6.332386E-2,2.2607878E-1,3.908402E-1,5.91678E-1,8.0919707E-1,9.949748E-1,1.1717212E0,1.3955051E0,1.5750781E0,1.7713283E0,1.9502563E0,2.1858492E0,2.4461894E0,-1.328804E-1,-1.2257639E-1,-1.1624191E-1,-1.1102343E-1,-1.0494807E-1,-1.0027791E-1,-9.5189705E-2,-8.777012E-2,-8.02333E-2,-7.516001E-2,-7.077151E-2,-6.688719E-2,-6.353419E-2,-5.9652798E-2,-5.545038E-2,-5.1530216E-2,-4.828005E-2,-4.485905E-2,-4.128333E-2,-3.7999358E-2,-3.373231E-2,-7.5506085E-1,-6.608897E-1,-5.781096E-1,-4.7283676E-1,-3.8347203E-1,-3.0337718E-1,-2.1467906E-1,-1.3466825E-1,-4.8560403E-2,2.7714157E-2,1.0275531E-1,1.8182518E-1,2.6167256E-1,3.5462308E-1,4.5346564E-1,5.542845E-1,2.5814127E-2,7.5063545E-1,8.434547E-1,3.7767697E-2,1.0301739E0,4.4800792E-2,1.2201352E0,5.3662796E-2,5.8028743E-2,6.1232354E-2,6.5344796E-2,6.84218E-2,7.224309E-2,7.573374E-2,8.022588E-2,8.532395E-2,8.986385E-2,9.5085084E-2,1.03067756E-1,-3.1219631E-2,-2.9239547E-2,-2.713042E-2,-2.5175873E-2,-2.3743702E-2,-2.2003943E-2,-2.0028599E-2,-1.784348E-2,-1.622088E-2,-1.4458893E-2,-1.2992595E-2,-1.126576E-2,-9.240406E-3,-7.90431E-3,-1.5458995E-1,-4.494068E-3,-6.732199E-2,-1.0882277E-3,2.2755306E-4,4.425021E-2,3.2737737E-3,1.2110266E-1,1.6430546E-1,8.16296E-3,2.4382076E-1,2.8512055E-1,3.311886E-1,3.780284E-1,1.7345529E-2,1.9538155E-2,2.1445196E-2,2.34606E-2,2.8943853E-2,3.0916125E-2,3.2818884E-2,3.4969326E-2,4.0370967E-2,4.2220697E-2,4.7626454E-2,4.9970258E-2,-6.536126E-3,-5.486895E-3,-3.1323023E-3,-2.1583687E-3,1.3678069E-3,2.2583653E-3,4.2803744E-3,5.160923E-3,6.093856E-3,6.964811E-3,9.31556E-3,1.02143055E-2,1.0953414E-2,1.1826589E-2,1.2653555E-2,1.3652144E-2,1.4636457E-2,1.5670191E-2],"categories":[],"categories_nodes":[],"categories_segments":[],"categories_sizes":[],"default_left":[0,0,0,0,0,0,0,0,0,0,0,0,0,0,0,0,0,0,0,0,0,0,0,0,0,0,0,0,0,0,0,0,0,0,0,0,0,0,0,0,0,0,0,0,0,0,0,0,0,0,0,0,0,0,0,0,0,0,0,0,0,0,0,0,0,0,0,0,0,0,0,0,0,0,0,0,0,0,0,0,0,0,0,0,0,0,0,0,0,0,0,0,0,0,0,0,0,0,0,0,0,0,0,0,0,0,0,0,0,0,0,0,0,0,0,0,0,0,0,0,0,0,0,0,0,0,0,0,0,0,0,0,0,0,0,0,0,0,0,0,0,0,0,0,0,0,0,0,0,0,0,0,0,0,0,0,0,0,0,0,0,0,0,0,0,0,0,0,0,0,0,0,0,0,0,0,0],"id":6,"left_children":[1,3,5,7,9,11,13,15,17,19,21,23,25,27,29,31,33,35,37,39,41,43,45,47,49,51,53,55,57,59,61,-1,-1,-1,-1,63,65,67,69,71,73,75,77,79,81,83,85,87,89,91,93,95,97,99,101,103,105,107,109,111,113,115,117,-1,-1,-1,-1,-1,-1,-1,-1,-1,-1,-1,-1,-1,-1,-1,-1,-1,-1,-1,-1,-1,119,121,123,125,127,129,131,133,135,137,139,141,143,145,147,149,-1,151,153,-1,155,-1,157,-1,-1,-1,-1,-1,-1,-1,-1,-1,-1,-1,-1,-1,-1,-1,-1,-1,-1,-1,-1,-1,-1,-1,-1,-1,-1,159,-1,161,-1,-1,163,-1,165,167,-1,169,171,173,175,-1,-1,-1,-1,-1,-1,-1,-1,-1,-1,-1,-1,-1,-1,-1,-1,-1,-1,-1,-1,-1,-1,-1,-1,-1,-1,-1,-1,-1,-1],"loss_changes":[1.3260062E5,1.9165125E4,3.0450441E4,2.6035547E3,1.9113145E3,2.4882432E3,4.5213594E3,6.9583984E1,3.0876953E2,2.333711E2,3.3416992E2,3.5961768E2,7.6745483E2,5.6818164E2,5.823047E2,1.0449219E1,9.136719E0,7.480859E1,3.8070312E1,2.9347656E1,3.3075195E1,3.5637207E1,3.1600586E1,3.69245E1,4.91831E1,8.829761E1,5.431836E1,6.192383E1,5.354004E1,3.9560547E1,9.566211E1,0E0,0E0,0E0,0E0,6.7958984E0,2.7792969E0,3.765625E0,4.5336914E-1,1.6435547E0,6.298828E-1,3.149414E0,2.1096191E0,4.03833E0,2.3745117E0,3.7613525E0,2.965393E0,5.163391E0,5.091385E0,7.9729576E0,5.9872246E0,1.2799347E1,1.2130066E1,3.064392E0,6.6394043E0,6.157715E0,8.875977E0,9.85498E0,5.4379883E0,2.5439453E0,4.7421875E0,4.6865234E0,2.0958984E1,0E0,0E0,0E0,0E0,0E0,0E0,0E0,0E0,0E0,0E0,0E0,0E0,0E0,0E0,0E0,0E0,0E0,0E0,0E0,0E0,0E0,2.2094727E-1,1.0266113E-1,1.015625E-1,7.394104E-1,5.276947E-1,5.2445984E-1,3.1705856E-1,8.633499E-1,9.424968E-1,8.166759E-1,7.666168E-1,1.3849411E0,1.8216553E0,1.7605286E0,1.1631165E0,2.7770996E-1,0E0,2.5170898E-1,8.9489746E-1,0E0,1.7675781E-1,0E0,3.166504E-1,0E0,0E0,0E0,0E0,0E0,0E0,0E0,0E0,0E0,0E0,0E0,0E0,0E0,0E0,0E0,0E0,0E0,0E0,0E0,0E0,0E0,0E0,0E0,0E0,0E0,0E0,1.3784409E-1,0E0,1.7985868E-1,0E0,0E0,1.553266E-1,0E0,1.06300354E-1,2.130394E-1,0E0,2.6490784E-1,1.5072632E-1,1.512909E-1,1.4155579E-1,0E0,0E0,0E0,0E0,0E0,0E0,0E0,0E0,0E0,0E0,0E0,0E0,0E0,0E0,0E0,0E0,0E0,0E0,0E0,0E0,0E0,0E0,0E0,0E0,0E0,0E0,0E0,0E0,0E0,0E0],"parents":[2147483647,0,0,1,1,2,2,3,3,4,4,5,5,6,6,7,7,8,8,9,9,10,10,11,11,12,12,13,13,14,14,15,15,16,16,17,17,18,18,19,19,20,20,21,21,22,22,23,23,24,24,25,25,26,26,27,27,28,28,29,29,30,30,35,35,36,36,37,37,38,38,39,39,40,40,41,41,42,42,43,43,44,44,45,45,46,46,47,47,48,48,49,49,50,50,51,51,52,52,53,53,54,54,55,55,56,56,57,57,58,58,59,59,60,60,61,61,62,62,84,84,85,85,86,86,87,87,88,88,89,89,90,90,91,91,92,92,93,93,94,94,95,95,96,96,97,97,98,98,99,99,101,101,102,102,104,104,106,106,133,133,135,135,138,138,140,140,141,141,143,143,144,144,145,145,146,146],"right_children":[2,4,6,8,10,12,14,16,18,20,22,24,26,28,30,32,34,36,38,40,42,44,46,48,50,52,54,56,58,60,62,-1,-1,-1,-1,64,66,68,70,72,74,76,78,80,82,84,86,88,90,92,94,96,98,100,102,104,106,108,110,112,114,116,118,-1,-1,-1,-1,-1,-1,-1,-1,-1,-1,-1,-1,-1,-1,-1,-1,-1,-1,-1,-1,-1,120,122,124,126,128,130,132,134,136,138,140,142,144,146,148,150,-1,152,154,-1,156,-1,158,-1,-1,-1,-1,-1,-1,-1,-1,-1,-1,-1,-1,-1,-1,-1,-1,-1,-1,-1,-1,-1,-1,-1,-1,-1,-1,160,-1,162,-1,-1,164,-1,166,168,-1,170,172,174,176,-1,-1,-1,-1,-1,-1,-1,-1,-1,-1,-1,-1,-1,-1,-1,-1,-1,-1,-1,-1,-1,-1,-1,-1,-1,-1,-1,-1,-1,-1],"split_conditions":[7.0135E1,6.8125E1,7.197E1,6.64096E1,6.921049E1,7.0995E1,7.296303E1,6.569E1,6.7345E1,6.8725E1,6.9666954E1,7.0585E1,7.147E1,7.245E1,7.347E1,6.5285E1,6.606E1,6.6995E1,6.765E1,6.847E1,6.897137E1,6.94402E1,6.991906E1,7.038E1,7.0805E1,7.121E1,7.1695E1,7.2195E1,7.272E1,7.319E1,7.377E1,-1.7814857E-1,-1.6381086E-1,-1.5651709E-1,-1.4376663E-1,6.6705E1,6.7195E1,6.755E1,6.7895E1,6.8335E1,6.8625E1,6.8845E1,6.9115E1,6.933E1,6.95502E1,6.9785E1,7.0025E1,7.026E1,7.049E1,7.07E1,7.089E1,7.11E1,7.1335E1,7.1595E1,7.182957E1,7.2075E1,7.231E1,7.2605E1,7.284E1,7.305E1,7.33E1,7.361E1,7.397E1,-1.328804E-1,-1.2257639E-1,-1.1624191E-1,-1.1102343E-1,-1.0494807E-1,-1.0027791E-1,-9.5189705E-2,-8.777012E-2,-8.02333E-2,-7.516001E-2,-7.077151E-2,-6.688719E-2,-6.353419E-2,-5.9652798E-2,-5.545038E-2,-5.1530216E-2,-4.828005E-2,-4.485905E-2,-4.128333E-2,-3.7999358E-2,-3.373231E-2,6.9845E1,6.9975E1,7.008E1,7.022E1,7.0325E1,7.0425E1,7.0545E1,7.064E1,7.076E1,7.0845E1,7.0945E1,7.1055E1,7.1155E1,7.127E1,7.1405E1,7.1545E1,2.5814127E-2,7.178E1,7.189756E1,3.7767697E-2,7.214E1,4.4800792E-2,7.2375E1,5.3662796E-2,5.8028743E-2,6.1232354E-2,6.5344796E-2,6.84218E-2,7.224309E-2,7.573374E-2,8.022588E-2,8.532395E-2,8.986385E-2,9.5085084E-2,1.03067756E-1,-3.1219631E-2,-2.9239547E-2,-2.713042E-2,-2.5175873E-2,-2.3743702E-2,-2.2003943E-2,-2.0028599E-2,-1.784348E-2,-1.622088E-2,-1.4458893E-2,-1.2992595E-2,-1.126576E-2,-9.240406E-3,-7.90431E-3,7.063E1,-4.494068E-3,7.0735E1,-1.0882277E-3,2.2755306E-4,7.0875E1,3.2737737E-3,7.0965E1,7.1025E1,8.16296E-3,7.112E1,7.118E1,7.1235E1,7.13E1,1.7345529E-2,1.9538155E-2,2.1445196E-2,2.34606E-2,2.8943853E-2,3.0916125E-2,3.2818884E-2,3.4969326E-2,4.0370967E-2,4.2220697E-2,4.7626454E-2,4.9970258E-2,-6.536126E-3,-5.486895E-3,-3.1323023E-3,-2.1583687E-3,1.3678069E-3,2.2583653E-3,4.2803744E-3,5.160923E-3,6.093856E-3,6.964811E-3,9.31556E-3,1.02143055E-2,1.0953414E-2,1.1826589E-2,1.2653555E-2,1.3652144E-2,1.4636457E-2,1.5670191E-2],"split_indices":[3,3,3,18,18,3,18,3,2,3,18,3,3,3,3,2,10,2,9,2,18,18,18,3,3,3,3,3,3,3,3,0,0,0,0,3,3,3,3,3,3,3,3,3,18,2,3,2,3,3,2,3,3,3,18,3,3,3,3,3,3,3,3,0,0,0,0,0,0,0,0,0,0,0,0,0,0,0,0,0,0,0,0,0,3,2,2,3,3,3,3,2,3,3,3,3,3,3,2,3,0,3,18,0,3,0,3,0,0,0,0,0,0,0,0,0,0,0,0,0,0,0,0,0,0,0,0,0,0,0,0,0,0,3,0,3,0,0,3,0,3,3,0,2,3,3,3,0,0,0,0,0,0,0,0,0,0,0,0,0,0,0,0,0,0,0,0,0,0,0,0,0,0,0,0,0,0],"split_type":[0,0,0,0,0,0,0,0,0,0,0,0,0,0,0,0,0,0,0,0,0,0,0,0,0,0,0,0,0,0,0,0,0,0,0,0,0,0,0,0,0,0,0,0,0,0,0,0,0,0,0,0,0,0,0,0,0,0,0,0,0,0,0,0,0,0,0,0,0,0,0,0,0,0,0,0,0,0,0,0,0,0,0,0,0,0,0,0,0,0,0,0,0,0,0,0,0,0,0,0,0,0,0,0,0,0,0,0,0,0,0,0,0,0,0,0,0,0,0,0,0,0,0,0,0,0,0,0,0,0,0,0,0,0,0,0,0,0,0,0,0,0,0,0,0,0,0,0,0,0,0,0,0,0,0,0,0,0,0,0,0,0,0,0,0,0,0,0,0,0,0,0,0,0,0,0,0],"sum_hessian":[8.5143E4,2.5903E4,5.924E4,9.726E3,1.6177E4,3.2802E4,2.6438E4,2.011E3,7.715E3,6.982E3,9.195E3,1.3901E4,1.8901E4,1.5103E4,1.1335E4,9.91E2,1.02E3,3.99E3,3.725E3,2.951E3,4.031E3,4.951E3,4.244E3,5.3E3,8.601E3,1.3573E4,5.328E3,8.079E3,7.024E3,5.374E3,5.961E3,3.27E2,6.64E2,6.64E2,3.56E2,1.294E3,2.696E3,3.066E3,6.59E2,1.345E3,1.606E3,2.372E3,1.659E3,2.961E3,1.99E3,2.291E3,1.953E3,2.679E3,2.621E3,4.336E3,4.265E3,8.155E3,5.418E3,1.704E3,3.624E3,3.988E3,4.091E3,3.962E3,3.062E3,2.666E3,2.708E3,2.957E3,3.004E3,3.38E2,9.56E2,1.01E3,1.686E3,1.667E3,1.399E3,3.11E2,3.48E2,6.65E2,6.8E2,9.7E2,6.36E2,1.039E3,1.333E3,9.41E2,7.18E2,1.566E3,1.395E3,9.87E2,1.003E3,9.99E2,1.292E3,9.67E2,9.86E2,1.29E3,1.389E3,1.321E3,1.3E3,1.98E3,2.356E3,2.242E3,2.023E3,3.638E3,4.517E3,3.437E3,1.981E3,1.011E3,6.93E2,1.346E3,2.278E3,1.644E3,2.344E3,1.99E3,2.101E3,2.017E3,1.945E3,1.759E3,1.303E3,9.88E2,1.678E3,1.353E3,1.355E3,1.602E3,1.355E3,1.977E3,1.027E3,6.13E2,6.79E2,6.1E2,3.57E2,6.22E2,3.64E2,6.23E2,6.67E2,6.85E2,7.04E2,6.58E2,6.63E2,6.58E2,6.42E2,1.043E3,9.37E2,1.253E3,1.103E3,9.62E2,1.28E3,9.48E2,1.075E3,2.04E3,1.598E3,2.571E3,1.946E3,1.725E3,1.712E3,1.273E3,7.08E2,6.58E2,3.53E2,6.23E2,7.23E2,1.32E3,9.58E2,1.307E3,1.037E3,1.065E3,1.036E3,6.87E2,3.56E2,6.85E2,5.68E2,7.04E2,5.76E2,3.92E2,6.83E2,9.27E2,1.113E3,1.331E3,1.24E3,9.53E2,9.93E2,7.12E2,1.013E3,9.24E2,7.88E2],"tree_param":{"num_deleted":"0","num_feature":"25","num_nodes":"177","size_leaf_vector":"1"}},{"base_weights":[6.502253E-3,-1.7904246E0,7.9984385E-1,-2.881017E0,-1.1542474E0,1.8786113E-1,1.5699788E0,-3.8517077E0,-2.6233528E0,-1.5469934E0,-8.712599E-1,-1.0270323E-1,4.2806348E-1,1.2310064E0,2.0297408E0,-3.9885159E0,-1.42506E-1,-2.8466663E0,-2.4545553E0,-1.7556211E0,-1.3968179E0,-1.0532845E0,-6.7316073E-1,-3.013353E-1,2.0398986E-2,2.9896805E-1,7.3695755E-1,1.0548496E0,1.4337869E0,1.822871E0,2.2486963E0,-1.7085978E-1,-1.5565968E-1,-1.22068696E-1,-2.7614377E0,-2.5249572E0,-2.2905593E0,-1.8684098E0,-1.6634728E0,-1.4716812E0,-1.2909782E0,-1.1218879E0,-9.513201E-1,-7.503698E-1,-5.701742E-1,-3.7915033E-1,-2.1018516E-1,-5.5548843E-2,9.65405E-2,2.3699339E-1,3.9333287E-1,6.0374933E-1,7.946332E-1,9.799813E-1,1.1566818E0,1.3572637E0,1.5330824E0,1.7399349E0,1.942617E0,2.168087E0,2.41578E0,-1.1356131E-1,-1.0787158E-1,-1.0454016E-1,-9.915059E-2,-9.408046E-2,-8.4275104E-2,-7.8768335E-2,-7.324535E-2,-6.7945965E-2,-6.423969E-2,-6.0459137E-2,-5.67354E-2,-5.3156827E-2,-4.9331177E-2,-4.6400808E-2,-4.3074742E-2,-3.92247E-2,-3.583716E-2,-7.975968E-1,-7.039273E-1,-2.4373591E-2,-2.1118293E-2,-4.2999607E-1,-3.40063E-1,-2.5909197E-1,-1.810454E-1,-1.0115128E-1,-2.0189533E-2,6.0437076E-2,1.3596725E-1,2.0491391E-1,2.7339482E-1,3.538986E-1,4.532245E-1,5.643257E-1,2.6308766E-2,7.571177E-1,8.395673E-1,9.3468344E-1,1.0248586E0,4.458156E-2,4.7887176E-2,5.225295E-2,5.6275424E-2,5.9545033E-2,6.3567534E-2,6.751401E-2,7.160353E-2,7.5165644E-2,7.954785E-2,8.425409E-2,8.97677E-2,9.42086E-2,1.0027615E-1,-3.32054E-2,-3.0750347E-2,-2.910178E-2,-2.7049975E-2,-1.8000806E-2,-1.632154E-2,-1.4706858E-2,-1.279754E-2,-1.1389202E-2,-9.83269E-3,-7.876083E-3,-6.319025E-3,-4.846032E-3,-3.2617112E-3,-4.1536644E-2,2.2248594E-5,4.1873474E-2,8.103557E-2,4.7024298E-3,5.990218E-3,1.8479118E-1,8.93193E-3,2.5842848E-1,1.185164E-2,1.3400211E-2,1.501757E-2,1.7287178E-2,1.9629616E-2,2.124692E-2,2.3251252E-2,2.887897E-2,3.094187E-2,3.251311E-2,3.4311317E-2,3.6274135E-2,3.8241435E-2,3.9944563E-2,4.1775644E-2,-2.0895556E-3,-1.2860125E-3,-4.3310298E-4,4.0058617E-4,1.3048304E-3,2.1118296E-3,2.677148E-3,3.515244E-3,7.08271E-3,7.906148E-3,9.990556E-3,1.0787356E-2],"categories":[],"categories_nodes":[],"categories_segments":[],"categories_sizes":[],"default_left":[0,0,0,0,0,0,0,0,0,0,0,0,0,0,0,0,0,0,0,0,0,0,0,0,0,0,0,0,0,0,0,0,0,0,0,0,0,0,0,0,0,0,0,0,0,0,0,0,0,0,0,0,0,0,0,0,0,0,0,0,0,0,0,0,0,0,0,0,0,0,0,0,0,0,0,0,0,0,0,0,0,0,0,0,0,0,0,0,0,0,0,0,0,0,0,0,0,0,0,0,0,0,0,0,0,0,0,0,0,0,0,0,0,0,0,0,0,0,0,0,0,0,0,0,0,0,0,0,0,0,0,0,0,0,0,0,0,0,0,0,0,0,0,0,0,0,0,0,0,0,0,0,0,0,0,0,0,0,0,0,0,0,0,0,0],"id":7,"left_children":[1,3,5,7,9,11,13,15,17,19,21,23,25,27,29,31,-1,33,35,37,39,41,43,45,47,49,51,53,55,57,59,-1,-1,-1,61,63,65,67,69,71,73,75,77,79,81,83,85,87,89,91,93,95,97,99,101,103,105,107,109,111,113,-1,-1,-1,-1,-1,-1,-1,-1,-1,-1,-1,-1,-1,-1,-1,-1,-1,-1,115,117,-1,-1,119,121,123,125,127,129,131,133,135,137,139,141,143,-1,145,147,149,151,-1,-1,-1,-1,-1,-1,-1,-1,-1,-1,-1,-1,-1,-1,-1,-1,-1,-1,-1,-1,-1,-1,-1,-1,-1,-1,-1,-1,153,155,157,159,-1,-1,161,-1,163,-1,-1,-1,-1,-1,-1,-1,-1,-1,-1,-1,-1,-1,-1,-1,-1,-1,-1,-1,-1,-1,-1,-1,-1,-1,-1,-1],"loss_changes":[1.2155752E5,1.8116227E4,2.7879059E4,2.3962188E3,1.8320527E3,2.3006016E3,4.0794375E3,6.5515625E1,2.7971875E2,2.1395117E2,3.450962E2,3.647818E2,7.193567E2,5.3712695E2,4.993125E2,2.0716797E1,0E0,4.8683594E1,4.4314453E1,2.689746E1,2.995996E1,3.388037E1,3.6109375E1,4.040631E1,5.327058E1,7.4342896E1,4.0377686E1,6.0416016E1,5.1161133E1,5.3427734E1,6.742578E1,0E0,0E0,0E0,3.9765625E0,5.8984375E0,9.876465E0,1.2412109E0,5.029297E-1,2.8364258E0,2.025879E0,3.86792E0,2.3930664E0,5.1916504E0,2.9404907E0,5.9710693E0,3.7026215E0,7.4346704E0,6.539612E0,8.91806E0,1.1752441E1,3.0565186E0,5.6152344E0,8.513184E0,4.4941406E0,8.187012E0,5.222168E0,5.8310547E0,3.0839844E0,1.2416016E1,3.7373047E0,0E0,0E0,0E0,0E0,0E0,0E0,0E0,0E0,0E0,0E0,0E0,0E0,0E0,0E0,0E0,0E0,0E0,0E0,5.7507324E-1,3.7805176E-1,0E0,0E0,4.0292358E-1,8.5188293E-1,2.6354218E-1,5.732155E-1,7.79932E-1,1.1213739E0,9.154711E-1,5.402298E-1,1.4714355E0,1.1560364E0,1.1138916E0,1.3661499E0,2.1850586E-1,0E0,6.1413574E-1,1.2011719E-1,5.175781E-1,1.5112305E-1,0E0,0E0,0E0,0E0,0E0,0E0,0E0,0E0,0E0,0E0,0E0,0E0,0E0,0E0,0E0,0E0,0E0,0E0,0E0,0E0,0E0,0E0,0E0,0E0,0E0,0E0,0E0,0E0,1.2529516E-1,1.44952E-1,1.2622046E-1,1.040144E-1,0E0,0E0,1.5952301E-1,0E0,1.4553833E-1,0E0,0E0,0E0,0E0,0E0,0E0,0E0,0E0,0E0,0E0,0E0,0E0,0E0,0E0,0E0,0E0,0E0,0E0,0E0,0E0,0E0,0E0,0E0,0E0,0E0,0E0,0E0],"parents":[2147483647,0,0,1,1,2,2,3,3,4,4,5,5,6,6,7,7,8,8,9,9,10,10,11,11,12,12,13,13,14,14,15,15,17,17,18,18,19,19,20,20,21,21,22,22,23,23,24,24,25,25,26,26,27,27,28,28,29,29,30,30,34,34,35,35,36,36,37,37,38,38,39,39,40,40,41,41,42,42,43,43,44,44,45,45,46,46,47,47,48,48,49,49,50,50,51,51,52,52,53,53,54,54,55,55,56,56,57,57,58,58,59,59,60,60,79,79,80,80,83,83,84,84,85,85,86,86,87,87,88,88,89,89,90,90,91,91,92,92,93,93,94,94,95,95,97,97,98,98,99,99,100,100,129,129,130,130,131,131,132,132,135,135,137,137],"right_children":[2,4,6,8,10,12,14,16,18,20,22,24,26,28,30,32,-1,34,36,38,40,42,44,46,48,50,52,54,56,58,60,-1,-1,-1,62,64,66,68,70,72,74,76,78,80,82,84,86,88,90,92,94,96,98,100,102,104,106,108,110,112,114,-1,-1,-1,-1,-1,-1,-1,-1,-1,-1,-1,-1,-1,-1,-1,-1,-1,-1,116,118,-1,-1,120,122,124,126,128,130,132,134,136,138,140,142,144,-1,146,148,150,152,-1,-1,-1,-1,-1,-1,-1,-1,-1,-1,-1,-1,-1,-1,-1,-1,-1,-1,-1,-1,-1,-1,-1,-1,-1,-1,-1,-1,154,156,158,160,-1,-1,162,-1,164,-1,-1,-1,-1,-1,-1,-1,-1,-1,-1,-1,-1,-1,-1,-1,-1,-1,-1,-1,-1,-1,-1,-1,-1,-1,-1,-1],"split_conditions":[7.0185E1,6.812225E1,7.1995E1,6.637E1,6.921049E1,7.1035E1,7.299E1,6.5782394E1,6.7285E1,6.8725E1,6.9666954E1,7.063E1,7.15E1,7.2485E1,7.354E1,6.5355E1,-1.42506E-1,6.6945E1,6.760249E1,6.848E1,6.897137E1,6.94402E1,6.995E1,7.0425E1,7.0845E1,7.1235E1,7.1745E1,7.2245E1,7.274E1,7.3256546E1,7.3875E1,-1.7085978E-1,-1.5565968E-1,-1.22068696E-1,6.7135E1,6.741063E1,6.7905E1,6.826889E1,6.8625E1,6.888E1,6.911903E1,6.933E1,6.958E1,6.982E1,7.006E1,7.03E1,7.052E1,7.0735E1,7.094812E1,7.1145E1,7.1365E1,7.164E1,7.188E1,7.212E1,7.2355E1,7.263E1,7.287E1,7.314E1,7.3385E1,7.3735E1,7.406333E1,-1.1356131E-1,-1.0787158E-1,-1.0454016E-1,-9.915059E-2,-9.408046E-2,-8.4275104E-2,-7.8768335E-2,-7.324535E-2,-6.7945965E-2,-6.423969E-2,-6.0459137E-2,-5.67354E-2,-5.3156827E-2,-4.9331177E-2,-4.6400808E-2,-4.3074742E-2,-3.92247E-2,-3.583716E-2,6.9755E1,6.989E1,-2.4373591E-2,-2.1118293E-2,7.026E1,7.0355E1,7.0455E1,7.0585E1,7.068E1,7.079E1,7.09E1,7.0995E1,7.109E1,7.119E1,7.129E1,7.144E1,7.1555E1,2.6308766E-2,7.1805E1,7.1925E1,7.2055E1,7.2175E1,4.458156E-2,4.7887176E-2,5.225295E-2,5.6275424E-2,5.9545033E-2,6.3567534E-2,6.751401E-2,7.160353E-2,7.5165644E-2,7.954785E-2,8.425409E-2,8.97677E-2,9.42086E-2,1.0027615E-1,-3.32054E-2,-3.0750347E-2,-2.910178E-2,-2.7049975E-2,-1.8000806E-2,-1.632154E-2,-1.4706858E-2,-1.279754E-2,-1.1389202E-2,-9.83269E-3,-7.876083E-3,-6.319025E-3,-4.846032E-3,-3.2617112E-3,7.076E1,7.0815E1,7.0875E1,7.0925E1,4.7024298E-3,5.990218E-3,7.107E1,8.93193E-3,7.1165E1,1.185164E-2,1.3400211E-2,1.501757E-2,1.7287178E-2,1.9629616E-2,2.124692E-2,2.3251252E-2,2.887897E-2,3.094187E-2,3.251311E-2,3.4311317E-2,3.6274135E-2,3.8241435E-2,3.9944563E-2,4.1775644E-2,-2.0895556E-3,-1.2860125E-3,-4.3310298E-4,4.0058617E-4,1.3048304E-3,2.1118296E-3,2.677148E-3,3.515244E-3,7.08271E-3,7.906148E-3,9.990556E-3,1.0787356E-2],"split_indices":[1,7,3,9,18,3,3,19,3,3,18,3,3,3,3,1,0,3,18,3,18,18,3,3,3,3,3,3,3,18,3,0,0,0,3,18,1,18,3,3,18,3,3,3,3,3,3,3,18,1,1,3,3,3,3,3,3,3,3,3,18,0,0,0,0,0,0,0,0,0,0,0,0,0,0,0,0,0,0,3,1,0,0,1,3,3,3,3,3,3,3,3,3,3,3,1,0,3,3,3,3,0,0,0,0,0,0,0,0,0,0,0,0,0,0,0,0,0,0,0,0,0,0,0,0,0,0,0,0,3,3,3,1,0,0,3,0,3,0,0,0,0,0,0,0,0,0,0,0,0,0,0,0,0,0,0,0,0,0,0,0,0,0,0,0],"split_type":[0,0,0,0,0,0,0,0,0,0,0,0,0,0,0,0,0,0,0,0,0,0,0,0,0,0,0,0,0,0,0,0,0,0,0,0,0,0,0,0,0,0,0,0,0,0,0,0,0,0,0,0,0,0,0,0,0,0,0,0,0,0,0,0,0,0,0,0,0,0,0,0,0,0,0,0,0,0,0,0,0,0,0,0,0,0,0,0,0,0,0,0,0,0,0,0,0,0,0,0,0,0,0,0,0,0,0,0,0,0,0,0,0,0,0,0,0,0,0,0,0,0,0,0,0,0,0,0,0,0,0,0,0,0,0,0,0,0,0,0,0,0,0,0,0,0,0,0,0,0,0,0,0,0,0,0,0,0,0,0,0,0,0,0,0],"sum_hessian":[8.5267E4,2.6115E4,5.9152E4,9.62E3,1.6495E4,3.2961E4,2.6191E4,2.015E3,7.605E3,6.906E3,9.589E3,1.4917E4,1.8044E4,1.5078E4,1.1113E4,1.359E3,6.56E2,3.267E3,4.338E3,2.886E3,4.02E3,4.995E3,4.594E3,5.707E3,9.21E3,1.2727E4,5.317E3,8.072E3,7.006E3,5.719E3,5.394E3,3.36E2,1.023E3,9.49E2,2.318E3,3.025E3,1.313E3,1.289E3,1.597E3,2.347E3,1.673E3,2.98E3,2.015E3,2.622E3,1.972E3,3.077E3,2.63E3,4.611E3,4.599E3,7.684E3,5.043E3,1.61E3,3.707E3,4.658E3,3.414E3,3.965E3,3.041E3,3.388E3,2.331E3,3.648E3,1.746E3,1.034E3,1.284E3,1.018E3,2.007E3,9.75E2,3.38E2,3.34E2,9.55E2,9.73E2,6.24E2,1.328E3,1.019E3,9.96E2,6.77E2,1.6E3,1.38E3,1.307E3,7.08E2,1.292E3,1.33E3,1.016E3,9.56E2,1.333E3,1.744E3,9.79E2,1.651E3,2.013E3,2.598E3,2.402E3,2.197E3,4.088E3,3.596E3,3.045E3,1.998E3,9.37E2,6.73E2,2.03E3,1.677E3,2.329E3,2.329E3,1.687E3,1.727E3,1.97E3,1.995E3,1.712E3,1.329E3,1.679E3,1.709E3,9.98E2,1.333E3,2.03E3,1.618E3,1.065E3,6.81E2,5.94E2,6.98E2,7.04E2,6.26E2,6.87E2,6.46E2,7.28E2,1.016E3,3.27E2,6.52E2,9.74E2,6.77E2,9.94E2,1.019E3,1.263E3,1.335E3,1.265E3,1.137E3,9.45E2,1.252E3,1.957E3,2.131E3,2.182E3,1.414E3,1.631E3,1.414E3,1.288E3,7.1E2,3.28E2,6.09E2,6.61E2,1.369E3,6.98E2,9.79E2,1.03E3,1.299E3,1.016E3,1.313E3,5.88E2,6.75E2,6.4E2,6.95E2,6.87E2,5.78E2,3.75E2,7.62E2,1.232E3,7.25E2,1.246E3,9.36E2],"tree_param":{"num_deleted":"0","num_feature":"25","num_nodes":"165","size_leaf_vector":"1"}},{"base_weights":[-2.8477295E-3,-1.7364318E0,7.586761E-1,-2.7645118E0,-1.122341E0,1.6565476E-1,1.4966226E0,-3.6932404E0,-2.5182455E0,-1.4854684E0,-8.4683853E-1,-1.2829116E-1,3.845369E-1,1.1580728E0,1.9257367E0,-3.8928E0,-3.502871E0,-2.6978128E0,-2.323636E0,-1.682695E0,-1.3425367E0,-1.0121852E0,-6.59512E-1,-3.1639773E-1,-1.2106304E-2,2.6851246E-1,6.8240446E-1,9.9056065E-1,1.3423215E0,1.7050247E0,2.1348948E0,-1.6423178E-1,-1.5099417E-1,-1.4413773E-1,-1.3183367E-1,-2.8869002E0,-2.6040258E0,-2.370389E0,-2.1120641E0,-1.7917006E0,-1.5935644E0,-1.4141049E0,-1.2424768E0,-1.0766836E0,-9.1416436E-1,-7.342389E-1,-5.7464963E-1,-3.9443713E-1,-2.3800652E-1,-8.6964175E-2,5.3338304E-2,2.0901938E-1,3.5947266E-1,5.446665E-1,7.4587774E-1,9.168339E-1,1.0718662E0,1.2462558E0,1.4136615E0,1.612806E0,1.7873764E0,2.0256917E0,2.2662961E0,-1.2242655E-1,-1.1303512E-1,-1.0714052E-1,-1.0229133E-1,-9.677854E-2,-9.248304E-2,-8.7747015E-2,-8.104843E-2,-7.4046224E-2,-6.918123E-2,-6.516127E-2,-6.1618906E-2,-5.8086507E-2,-5.456538E-2,-5.1139362E-2,-4.7436807E-2,-4.4445265E-2,-4.1311458E-2,-3.804406E-2,-3.5080507E-2,-3.178568E-2,-7.07358E-1,-6.111907E-1,-2.1384835E-2,-4.3524504E-1,-3.520011E-1,-2.7998528E-1,-1.9778572E-1,-1.3015836E-1,-5.5817105E-2,1.665416E-2,8.993606E-2,1.6804841E-1,2.4133196E-1,3.21769E-1,4.099772E-1,5.101663E-1,2.3768699E-2,7.012194E-1,7.839397E-1,3.47811E-2,9.50246E-1,4.1041616E-2,4.439248E-2,4.7841933E-2,5.1199436E-2,5.481598E-2,5.8764752E-2,6.2700324E-2,6.62159E-2,6.95264E-2,7.3987894E-2,7.87103E-2,8.343853E-2,8.7975055E-2,9.5072754E-2,-2.9036475E-2,-2.7013823E-2,-2.5070013E-2,-2.3234094E-2,-1.8504828E-2,-1.6391503E-2,-1.4938271E-2,-1.3296212E-2,-1.1943374E-2,-1.0362091E-2,-8.523378E-3,-7.2621536E-3,-5.981016E-3,-4.6092244E-3,-7.701803E-2,-3.8273584E-2,5.041325E-5,1.4630179E-3,2.7297607E-3,1.0689619E-1,1.4738251E-1,1.8539669E-1,2.2516553E-1,2.6398426E-1,1.2063045E-2,1.3557325E-2,1.547057E-2,1.7637115E-2,1.9781526E-2,2.1638231E-2,2.6717328E-2,2.8839074E-2,3.0683324E-2,3.2562826E-2,3.7260443E-2,3.8969237E-2,-3.4130781E-3,-2.6016214E-3,-1.9160482E-3,-1.1288187E-3,-4.101792E-4,3.5766917E-4,3.8213804E-3,4.704027E-3,5.56496E-3,6.3097733E-3,7.0134085E-3,7.818149E-3,8.576706E-3,9.435262E-3,1.0173977E-2,1.0942143E-2],"categories":[],"categories_nodes":[],"categories_segments":[],"categories_sizes":[],"default_left":[0,0,0,0,0,0,0,0,0,0,0,0,0,0,0,0,0,0,0,0,0,0,0,0,0,0,0,0,0,0,0,0,0,0,0,0,0,0,0,0,0,0,0,0,0,0,0,0,0,0,0,0,0,0,0,0,0,0,0,0,0,0,0,0,0,0,0,0,0,0,0,0,0,0,0,0,0,0,0,0,0,0,0,0,0,0,0,0,0,0,0,0,0,0,0,0,0,0,0,0,0,0,0,0,0,0,0,0,0,0,0,0,0,0,0,0,0,0,0,0,0,0,0,0,0,0,0,0,0,0,0,0,0,0,0,0,0,0,0,0,0,0,0,0,0,0,0,0,0,0,0,0,0,0,0,0,0,0,0,0,0,0,0,0,0,0,0,0,0,0,0],"id":8,"left_children":[1,3,5,7,9,11,13,15,17,19,21,23,25,27,29,31,33,35,37,39,41,43,45,47,49,51,53,55,57,59,61,-1,-1,-1,-1,63,65,67,69,71,73,75,77,79,81,83,85,87,89,91,93,95,97,99,101,103,105,107,109,111,113,115,117,-1,-1,-1,-1,-1,-1,-1,-1,-1,-1,-1,-1,-1,-1,-1,-1,-1,-1,-1,-1,-1,119,121,-1,123,125,127,129,131,133,135,137,139,141,143,145,147,-1,149,151,-1,153,-1,-1,-1,-1,-1,-1,-1,-1,-1,-1,-1,-1,-1,-1,-1,-1,-1,-1,-1,-1,-1,-1,-1,-1,-1,-1,-1,-1,155,157,159,-1,-1,161,163,165,167,169,-1,-1,-1,-1,-1,-1,-1,-1,-1,-1,-1,-1,-1,-1,-1,-1,-1,-1,-1,-1,-1,-1,-1,-1,-1,-1,-1,-1],"loss_changes":[1.1260089E5,1.6431797E4,2.5933434E4,2.2170078E3,1.629332E3,2.114117E3,3.8336484E3,6.3789062E1,2.6270703E2,1.9591602E2,2.8646045E2,3.065144E2,6.5071826E2,4.5428125E2,5.3384375E2,9.270508E0,1.0049805E1,6.336328E1,3.1603516E1,2.580664E1,2.7467285E1,3.013379E1,2.7157227E1,3.2665955E1,4.2484253E1,7.32832E1,4.5746338E1,4.5390137E1,4.6396484E1,4.0177734E1,8.113086E1,0E0,0E0,0E0,0E0,5.3046875E0,2.4882812E0,3.0566406E0,3.125E-1,1.6738281E0,5.6347656E-1,2.5302734E0,1.9660645E0,3.3330078E0,1.8554688E0,3.1870117E0,2.6586304E0,4.491272E0,4.4594574E0,5.434763E0,6.210514E0,1.0812592E1,1.0072754E1,2.5500183E0,5.588257E0,5.597412E0,5.248047E0,3.5541992E0,7.644043E0,2.584961E0,5.9433594E0,7.321289E0,1.4762695E1,0E0,0E0,0E0,0E0,0E0,0E0,0E0,0E0,0E0,0E0,0E0,0E0,0E0,0E0,0E0,0E0,0E0,0E0,0E0,0E0,0E0,4.642334E-1,1.3635254E-1,0E0,7.6031494E-1,4.3084717E-1,4.3112183E-1,3.0127335E-1,4.72517E-1,8.718529E-1,7.647339E-1,8.447609E-1,1.2697906E0,1.6181641E0,9.628601E-1,1.4725952E0,2.0932007E-1,0E0,6.173096E-1,3.6132812E-1,0E0,1.5795898E-1,0E0,0E0,0E0,0E0,0E0,0E0,0E0,0E0,0E0,0E0,0E0,0E0,0E0,0E0,0E0,0E0,0E0,0E0,0E0,0E0,0E0,0E0,0E0,0E0,0E0,0E0,0E0,0E0,1.0033941E-1,1.2340748E-1,1.15721256E-1,0E0,0E0,1.4662933E-1,1.1976242E-1,1.6436768E-1,2.5808716E-1,1.05773926E-1,0E0,0E0,0E0,0E0,0E0,0E0,0E0,0E0,0E0,0E0,0E0,0E0,0E0,0E0,0E0,0E0,0E0,0E0,0E0,0E0,0E0,0E0,0E0,0E0,0E0,0E0,0E0,0E0],"parents":[2147483647,0,0,1,1,2,2,3,3,4,4,5,5,6,6,7,7,8,8,9,9,10,10,11,11,12,12,13,13,14,14,15,15,16,16,17,17,18,18,19,19,20,20,21,21,22,22,23,23,24,24,25,25,26,26,27,27,28,28,29,29,30,30,35,35,36,36,37,37,38,38,39,39,40,40,41,41,42,42,43,43,44,44,45,45,46,46,47,47,48,48,49,49,50,50,51,51,52,52,53,53,54,54,55,55,56,56,57,57,58,58,59,59,60,60,61,61,62,62,84,84,85,85,87,87,88,88,89,89,90,90,91,91,92,92,93,93,94,94,95,95,96,96,97,97,98,98,99,99,101,101,102,102,104,104,133,133,134,134,135,135,138,138,139,139,140,140,141,141,142,142],"right_children":[2,4,6,8,10,12,14,16,18,20,22,24,26,28,30,32,34,36,38,40,42,44,46,48,50,52,54,56,58,60,62,-1,-1,-1,-1,64,66,68,70,72,74,76,78,80,82,84,86,88,90,92,94,96,98,100,102,104,106,108,110,112,114,116,118,-1,-1,-1,-1,-1,-1,-1,-1,-1,-1,-1,-1,-1,-1,-1,-1,-1,-1,-1,-1,-1,120,122,-1,124,126,128,130,132,134,136,138,140,142,144,146,148,-1,150,152,-1,154,-1,-1,-1,-1,-1,-1,-1,-1,-1,-1,-1,-1,-1,-1,-1,-1,-1,-1,-1,-1,-1,-1,-1,-1,-1,-1,-1,-1,156,158,160,-1,-1,162,164,166,168,170,-1,-1,-1,-1,-1,-1,-1,-1,-1,-1,-1,-1,-1,-1,-1,-1,-1,-1,-1,-1,-1,-1,-1,-1,-1,-1,-1,-1],"split_conditions":[7.0125E1,6.817E1,7.1955E1,6.641E1,6.921049E1,7.0992294E1,7.293237E1,6.5705E1,6.735491E1,6.8715E1,6.9675E1,7.0575E1,7.146736E1,7.241936E1,7.348E1,6.541E1,6.6045E1,6.7009384E1,6.769E1,6.8480736E1,6.8955E1,6.94402E1,6.9925E1,7.037E1,7.08E1,7.122E1,7.171E1,7.219232E1,7.2655594E1,7.31668E1,7.378E1,-1.6423178E-1,-1.5099417E-1,-1.4413773E-1,-1.3183367E-1,6.667E1,6.7195E1,6.7555E1,6.789E1,6.832E1,6.864E1,6.8865E1,6.9105E1,6.9332466E1,6.954E1,6.975795E1,7.0035E1,7.0285E1,7.05E1,7.067E1,7.088E1,7.109E1,7.131E1,7.159154E1,7.1847664E1,7.2074265E1,7.228821E1,7.254E1,7.277E1,7.3035E1,7.3315E1,7.3625E1,7.397089E1,-1.2242655E-1,-1.1303512E-1,-1.0714052E-1,-1.0229133E-1,-9.677854E-2,-9.248304E-2,-8.7747015E-2,-8.104843E-2,-7.4046224E-2,-6.918123E-2,-6.516127E-2,-6.1618906E-2,-5.8086507E-2,-5.456538E-2,-5.1139362E-2,-4.7436807E-2,-4.4445265E-2,-4.1311458E-2,-3.804406E-2,-3.5080507E-2,-3.178568E-2,6.984457E1,6.9975E1,-2.1384835E-2,7.021E1,7.0315E1,7.042446E1,7.0535E1,7.063026E1,7.073398E1,7.0835E1,7.0932655E1,7.1043816E1,7.11545E1,7.125772E1,7.138E1,7.1543816E1,2.3768699E-2,7.179E1,7.191E1,3.47811E-2,7.2140175E1,4.1041616E-2,4.439248E-2,4.7841933E-2,5.1199436E-2,5.481598E-2,5.8764752E-2,6.2700324E-2,6.62159E-2,6.95264E-2,7.3987894E-2,7.87103E-2,8.343853E-2,8.7975055E-2,9.5072754E-2,-2.9036475E-2,-2.7013823E-2,-2.5070013E-2,-2.3234094E-2,-1.8504828E-2,-1.6391503E-2,-1.4938271E-2,-1.3296212E-2,-1.1943374E-2,-1.0362091E-2,-8.523378E-3,-7.2621536E-3,-5.981016E-3,-4.6092244E-3,7.0725E1,7.0762054E1,7.0805E1,1.4630179E-3,2.7297607E-3,7.0975E1,7.1015E1,7.107191E1,7.112687E1,7.118051E1,1.2063045E-2,1.3557325E-2,1.547057E-2,1.7637115E-2,1.9781526E-2,2.1638231E-2,2.6717328E-2,2.8839074E-2,3.0683324E-2,3.2562826E-2,3.7260443E-2,3.8969237E-2,-3.4130781E-3,-2.6016214E-3,-1.9160482E-3,-1.1288187E-3,-4.101792E-4,3.5766917E-4,3.8213804E-3,4.704027E-3,5.56496E-3,6.3097733E-3,7.0134085E-3,7.818149E-3,8.576706E-3,9.435262E-3,1.0173977E-2,1.0942143E-2],"split_indices":[2,10,2,17,18,18,18,1,18,2,1,2,18,18,1,10,1,20,10,18,2,18,1,2,1,1,1,18,18,18,2,0,0,0,0,9,16,1,0,2,1,2,2,18,2,18,1,1,1,2,2,2,2,18,18,18,18,1,2,2,1,1,20,0,0,0,0,0,0,0,0,0,0,0,0,0,0,0,0,0,0,0,0,0,18,2,0,2,2,18,2,18,18,2,18,18,18,18,2,18,0,1,2,0,18,0,0,0,0,0,0,0,0,0,0,0,0,0,0,0,0,0,0,0,0,0,0,0,0,0,0,0,0,1,18,2,0,0,1,2,18,18,18,0,0,0,0,0,0,0,0,0,0,0,0,0,0,0,0,0,0,0,0,0,0,0,0,0,0,0,0],"split_type":[0,0,0,0,0,0,0,0,0,0,0,0,0,0,0,0,0,0,0,0,0,0,0,0,0,0,0,0,0,0,0,0,0,0,0,0,0,0,0,0,0,0,0,0,0,0,0,0,0,0,0,0,0,0,0,0,0,0,0,0,0,0,0,0,0,0,0,0,0,0,0,0,0,0,0,0,0,0,0,0,0,0,0,0,0,0,0,0,0,0,0,0,0,0,0,0,0,0,0,0,0,0,0,0,0,0,0,0,0,0,0,0,0,0,0,0,0,0,0,0,0,0,0,0,0,0,0,0,0,0,0,0,0,0,0,0,0,0,0,0,0,0,0,0,0,0,0,0,0,0,0,0,0,0,0,0,0,0,0,0,0,0,0,0,0,0,0,0,0,0,0],"sum_hessian":[8.5291E4,2.6031E4,5.926E4,9.733E3,1.6298E4,3.2857E4,2.6403E4,2.037E3,7.696E3,7.029E3,9.269E3,1.4024E4,1.8833E4,1.4761E4,1.1642E4,9.85E2,1.052E3,3.996E3,3.7E3,2.949E3,4.08E3,4.921E3,4.348E3,5.354E3,8.67E3,1.3555E4,5.278E3,7.735E3,7.026E3,5.669E3,5.973E3,3.39E2,6.46E2,6.97E2,3.55E2,1.315E3,2.681E3,3.022E3,6.78E2,1.318E3,1.631E3,2.371E3,1.709E3,2.962E3,1.959E3,2.308E3,2.04E3,2.681E3,2.673E3,4.044E3,4.626E3,8.197E3,5.358E3,1.668E3,3.61E3,4.063E3,3.672E3,3.002E3,4.024E3,2.684E3,2.985E3,3.271E3,2.702E3,3.29E2,9.86E2,1.012E3,1.669E3,1.619E3,1.403E3,3.35E2,3.43E2,6.59E2,6.59E2,9.6E2,6.71E2,1.33E3,1.041E3,1.031E3,6.78E2,1.646E3,1.316E3,9.7E2,9.89E2,7.02E2,1.606E3,1.059E3,9.81E2,1.362E3,1.319E3,1.305E3,1.368E3,1.693E3,2.351E3,2.311E3,2.315E3,3.617E3,4.58E3,3.072E3,2.286E3,9.9E2,6.78E2,1.67E3,1.94E3,1.693E3,2.37E3,1.676E3,1.996E3,1.221E3,1.781E3,2.275E3,1.749E3,1.319E3,1.365E3,1.684E3,1.301E3,1.685E3,1.586E3,1.696E3,1.006E3,1.003E3,6.03E2,6.87E2,3.72E2,6.48E2,7.14E2,6.21E2,6.98E2,6.84E2,6.21E2,6.98E2,6.7E2,7.33E2,9.6E2,1.063E3,1.288E3,1.261E3,1.05E3,1.018E3,1.297E3,1.655E3,1.962E3,2.679E3,1.901E3,1.42E3,1.652E3,1.314E3,9.72E2,6.68E2,3.22E2,6.35E2,1.035E3,1.261E3,6.79E2,1.353E3,1.017E3,6.24E2,4.39E2,6.56E2,6.32E2,5.84E2,6.77E2,6.34E2,6.63E2,9.29E2,7.26E2,9.9E2,9.72E2,1.348E3,1.331E3,9.61E2,9.4E2],"tree_param":{"num_deleted":"0","num_feature":"25","num_nodes":"171","size_leaf_vector":"1"}},{"base_weights":[-1.9677728E-3,-1.6621495E0,7.2180367E-1,-2.6479378E0,-1.0740225E0,1.616585E-1,1.4359407E0,-3.547218E0,-2.4170008E0,-1.4430438E0,-8.2501847E-1,-1.24385044E-1,3.687106E-1,1.1257433E0,1.8747791E0,-3.7392457E0,-3.3633852E0,-2.6250818E0,-2.2615228E0,-1.6374497E0,-1.3164092E0,-9.9279344E-1,-6.441694E-1,-3.0398855E-1,-1.2480314E-2,2.5752154E-1,6.568619E-1,9.6518546E-1,1.3211278E0,1.6811093E0,2.0732472E0,-1.5754713E-1,-1.451468E-1,-1.3832803E-1,-1.268142E-1,-2.8143027E0,-2.5425649E0,-2.3272033E0,-2.1137574E0,-7.000565E-2,-1.5679557E0,-1.3957541E0,-1.2408141E0,-1.061755E0,-9.143527E-1,-7.284101E-1,-5.6154615E-1,-3.7946492E-1,-2.2837092E-1,-7.92839E-2,5.240218E-2,1.9926223E-1,3.4660152E-1,5.2369046E-1,7.1611524E-1,8.973643E-1,1.0647795E0,1.2493777E0,1.4142948E0,1.6139277E0,1.8024842E0,1.9993458E0,2.2321303E0,-1.17518924E-1,-1.0977992E-1,-1.0461708E-1,-9.94785E-2,-9.570001E-2,-9.1015555E-2,-8.668421E-2,-7.7719055E-2,-6.483144E-2,-6.118206E-2,-5.79759E-2,-5.4616272E-2,-5.1559456E-2,-4.7548965E-2,-4.3873295E-2,-4.1146573E-2,-3.8072553E-2,-3.467483E-2,-7.7976847E-1,-2.7565343E-2,-2.4452167E-2,-5.234026E-1,-4.1692284E-1,-3.3893952E-1,-2.681418E-1,-1.8933919E-1,-1.177643E-1,-4.4946767E-2,2.2119453E-2,8.789145E-2,1.6026956E-1,2.3175238E-1,3.134242E-1,4.016229E-1,4.914981E-1,2.2875702E-2,6.6226417E-1,7.4588555E-1,8.55239E-1,9.443414E-1,4.131508E-2,4.4421997E-2,4.775586E-2,5.1544055E-2,5.488991E-2,5.8655556E-2,6.2326524E-2,6.6376016E-2,7.0340425E-2,7.386759E-2,7.7160254E-2,8.230464E-2,8.6851105E-2,9.257686E-2,-3.1918284E-2,-2.9652903E-2,-2.1926815E-2,-1.9936454E-2,-1.7722564E-2,-1.5742365E-2,-1.4349163E-2,-1.2796568E-2,-1.1195849E-2,-9.440074E-3,-8.17933E-3,-6.9620362E-3,-5.495191E-3,-3.9610593E-3,-5.905259E-2,-1.0444755E-3,9.269539E-5,3.777619E-2,2.9200648E-3,4.2150915E-3,1.4255863E-1,1.7922455E-1,2.1356685E-1,2.5027597E-1,2.9321733E-1,1.3366482E-2,3.8392392E-1,1.7347114E-2,1.9044917E-2,2.0696318E-2,2.5059925E-2,2.6973965E-2,2.8996453E-2,3.0916082E-2,3.3149417E-2,3.527516E-2,3.6846805E-2,3.8518343E-2,-2.7978958E-3,-1.9696848E-3,1.1207932E-3,1.8472781E-3,5.322982E-3,6.101808E-3,6.8611125E-3,7.5473287E-3,8.087385E-3,8.8435495E-3,9.551106E-3,1.0377822E-2,1.1341509E-2,1.2204886E-2,1.4733425E-2,1.5887238E-2],"categories":[],"categories_nodes":[],"categories_segments":[],"categories_sizes":[],"default_left":[0,0,0,0,0,0,0,0,0,0,0,0,0,0,0,0,0,0,0,0,0,0,0,0,0,0,0,0,0,0,0,0,0,0,0,0,0,0,0,0,0,0,0,0,0,0,0,0,0,0,0,0,0,0,0,0,0,0,0,0,0,0,0,0,0,0,0,0,0,0,0,0,0,0,0,0,0,0,0,0,0,0,0,0,0,0,0,0,0,0,0,0,0,0,0,0,0,0,0,0,0,0,0,0,0,0,0,0,0,0,0,0,0,0,0,0,0,0,0,0,0,0,0,0,0,0,0,0,0,0,0,0,0,0,0,0,0,0,0,0,0,0,0,0,0,0,0,0,0,0,0,0,0,0,0,0,0,0,0,0,0,0,0,0,0,0,0,0,0,0,0],"id":9,"left_children":[1,3,5,7,9,11,13,15,17,19,21,23,25,27,29,31,33,35,37,39,41,43,45,47,49,51,53,55,57,59,61,-1,-1,-1,-1,63,65,67,69,-1,71,73,75,77,79,81,83,85,87,89,91,93,95,97,99,101,103,105,107,109,111,113,115,-1,-1,-1,-1,-1,-1,-1,-1,-1,-1,-1,-1,-1,-1,-1,-1,-1,-1,117,-1,-1,119,121,123,125,127,129,131,133,135,137,139,141,143,145,-1,147,149,151,153,-1,-1,-1,-1,-1,-1,-1,-1,-1,-1,-1,-1,-1,-1,-1,-1,-1,-1,-1,-1,-1,-1,-1,-1,-1,-1,-1,-1,155,-1,-1,157,-1,-1,159,161,163,165,167,-1,169,-1,-1,-1,-1,-1,-1,-1,-1,-1,-1,-1,-1,-1,-1,-1,-1,-1,-1,-1,-1,-1,-1,-1,-1,-1,-1,-1],"loss_changes":[1.0259794E5,1.50265E4,2.3785785E4,2.0029844E3,1.4908828E3,1.9737496E3,3.5559688E3,5.721289E1,2.434961E2,1.5887402E2,2.936162E2,2.8125433E2,6.1921387E2,4.791953E2,4.1251953E2,6.834961E0,7.705078E0,4.423242E1,3.7976562E1,1.7429688E1,2.2056152E1,2.6233398E1,3.209546E1,3.0573212E1,3.7379543E1,7.233295E1,4.2093506E1,5.5856934E1,4.439746E1,4.180078E1,5.825E1,0E0,0E0,0E0,0E0,4.8242188E-1,2.8203125E0,4.875E0,8.280762E0,0E0,7.7319336E-1,1.1582031E0,3.58667E0,1.9709473E0,3.3726807E0,4.1202393E0,4.162964E0,3.937561E0,4.1187744E0,5.608938E0,4.6999216E0,1.065152E1,9.941589E0,2.2963867E0,5.4731445E0,9.107178E0,3.8208008E0,6.970703E0,4.551758E0,6.388672E0,5.332031E-1,1.1011719E1,3.4228516E0,0E0,0E0,0E0,0E0,0E0,0E0,0E0,0E0,0E0,0E0,0E0,0E0,0E0,0E0,0E0,0E0,0E0,0E0,1.0284424E-1,0E0,0E0,5.587158E-1,6.7581177E-1,3.731842E-1,4.3564606E-1,2.7905655E-1,7.2260094E-1,5.954447E-1,7.3221695E-1,5.1667404E-1,1.2629089E0,1.496109E0,1.3456726E0,1.0084839E0,1.5319824E-1,0E0,1.5411377E-1,7.9333496E-1,1.1417236E0,1.303711E-1,0E0,0E0,0E0,0E0,0E0,0E0,0E0,0E0,0E0,0E0,0E0,0E0,0E0,0E0,0E0,0E0,0E0,0E0,0E0,0E0,0E0,0E0,0E0,0E0,0E0,0E0,0E0,0E0,1.3379335E-1,0E0,0E0,1.0687685E-1,0E0,0E0,1.68087E-1,1.02313995E-1,1.5460968E-1,1.7770386E-1,1.15478516E-1,0E0,1.3124084E-1,0E0,0E0,0E0,0E0,0E0,0E0,0E0,0E0,0E0,0E0,0E0,0E0,0E0,0E0,0E0,0E0,0E0,0E0,0E0,0E0,0E0,0E0,0E0,0E0,0E0,0E0,0E0],"parents":[2147483647,0,0,1,1,2,2,3,3,4,4,5,5,6,6,7,7,8,8,9,9,10,10,11,11,12,12,13,13,14,14,15,15,16,16,17,17,18,18,19,19,20,20,21,21,22,22,23,23,24,24,25,25,26,26,27,27,28,28,29,29,30,30,35,35,36,36,37,37,38,38,40,40,41,41,42,42,43,43,44,44,45,45,46,46,47,47,48,48,49,49,50,50,51,51,52,52,53,53,54,54,55,55,56,56,57,57,58,58,59,59,60,60,61,61,62,62,81,81,84,84,85,85,86,86,87,87,88,88,89,89,90,90,91,91,92,92,93,93,94,94,95,95,96,96,97,97,99,99,100,100,101,101,102,102,131,131,134,134,137,137,138,138,139,139,140,140,141,141,143,143],"right_children":[2,4,6,8,10,12,14,16,18,20,22,24,26,28,30,32,34,36,38,40,42,44,46,48,50,52,54,56,58,60,62,-1,-1,-1,-1,64,66,68,70,-1,72,74,76,78,80,82,84,86,88,90,92,94,96,98,100,102,104,106,108,110,112,114,116,-1,-1,-1,-1,-1,-1,-1,-1,-1,-1,-1,-1,-1,-1,-1,-1,-1,-1,118,-1,-1,120,122,124,126,128,130,132,134,136,138,140,142,144,146,-1,148,150,152,154,-1,-1,-1,-1,-1,-1,-1,-1,-1,-1,-1,-1,-1,-1,-1,-1,-1,-1,-1,-1,-1,-1,-1,-1,-1,-1,-1,-1,156,-1,-1,158,-1,-1,160,162,164,166,168,-1,170,-1,-1,-1,-1,-1,-1,-1,-1,-1,-1,-1,-1,-1,-1,-1,-1,-1,-1,-1,-1,-1,-1,-1,-1,-1,-1,-1],"split_conditions":[7.0125E1,6.817E1,7.1985E1,6.6395E1,6.916E1,7.1E1,7.298E1,6.5675E1,6.7295E1,6.8665E1,6.9605E1,7.0575E1,7.148E1,7.2495E1,7.3525E1,6.5285E1,6.603E1,6.6945E1,6.7595E1,6.84E1,6.892E1,6.937E1,6.9865E1,7.037E1,7.079E1,7.122E1,7.171E1,7.223E1,7.275E1,7.33E1,7.3885E1,-1.5754713E-1,-1.451468E-1,-1.3832803E-1,-1.268142E-1,6.676E1,6.712E1,6.744E1,6.7875E1,-7.000565E-2,6.8515E1,6.876759E1,6.9005E1,6.927E1,6.9525E1,6.975E1,7E1,7.0285E1,7.048E1,7.071E1,7.091E1,7.109E1,7.1325E1,7.1605E1,7.184E1,7.211E1,7.2355E1,7.259E1,7.288E1,7.3155E1,7.341E1,7.368386E1,7.405E1,-1.17518924E-1,-1.0977992E-1,-1.0461708E-1,-9.94785E-2,-9.570001E-2,-9.1015555E-2,-8.668421E-2,-7.7719055E-2,-6.483144E-2,-6.118206E-2,-5.79759E-2,-5.4616272E-2,-5.1559456E-2,-4.7548965E-2,-4.3873295E-2,-4.1146573E-2,-3.8072553E-2,-3.467483E-2,6.9705E1,-2.7565343E-2,-2.4452167E-2,7.007E1,7.021E1,7.0315E1,7.0465E1,7.0535E1,7.066E1,7.075E1,7.0855E1,7.0935E1,7.106E1,7.116E1,7.126E1,7.1425E1,7.1535E1,2.2875702E-2,7.1735E1,7.191E1,7.207E1,7.219E1,4.131508E-2,4.4421997E-2,4.775586E-2,5.1544055E-2,5.488991E-2,5.8655556E-2,6.2326524E-2,6.6376016E-2,7.0340425E-2,7.386759E-2,7.7160254E-2,8.230464E-2,8.6851105E-2,9.257686E-2,-3.1918284E-2,-2.9652903E-2,-2.1926815E-2,-1.9936454E-2,-1.7722564E-2,-1.5742365E-2,-1.4349163E-2,-1.2796568E-2,-1.1195849E-2,-9.440074E-3,-8.17933E-3,-6.9620362E-3,-5.495191E-3,-3.9610593E-3,7.072E1,-1.0444755E-3,9.269539E-5,7.086E1,2.9200648E-3,4.2150915E-3,7.1015E1,7.107E1,7.111E1,7.1165E1,7.1255E1,1.3366482E-2,7.138E1,1.7347114E-2,1.9044917E-2,2.0696318E-2,2.5059925E-2,2.6973965E-2,2.8996453E-2,3.0916082E-2,3.3149417E-2,3.527516E-2,3.6846805E-2,3.8518343E-2,-2.7978958E-3,-1.9696848E-3,1.1207932E-3,1.8472781E-3,5.322982E-3,6.101808E-3,6.8611125E-3,7.5473287E-3,8.087385E-3,8.8435495E-3,9.551106E-3,